tree
version=v4
num_class=1
num_tree_per_iteration=1
label_index=0
max_feature_idx=699
objective=binary sigmoid:1
feature_names=Column_0 Column_1 Column_2 Column_3 Column_4 Column_5 Column_6 Column_7 Column_8 Column_9 Column_10 Column_11 Column_12 Column_13 Column_14 Column_15 Column_16 Column_17 Column_18 Column_19 Column_20 Column_21 Column_22 Column_23 Column_24 Column_25 Column_26 Column_27 Column_28 Column_29 Column_30 Column_31 Column_32 Column_33 Column_34 Column_35 Column_36 Column_37 Column_38 Column_39 Column_40 Column_41 Column_42 Column_43 Column_44 Column_45 Column_46 Column_47 Column_48 Column_49 Column_50 Column_51 Column_52 Column_53 Column_54 Column_55 Column_56 Column_57 Column_58 Column_59 Column_60 Column_61 Column_62 Column_63 Column_64 Column_65 Column_66 Column_67 Column_68 Column_69 Column_70 Column_71 Column_72 Column_73 Column_74 Column_75 Column_76 Column_77 Column_78 Column_79 Column_80 Column_81 Column_82 Column_83 Column_84 Column_85 Column_86 Column_87 Column_88 Column_89 Column_90 Column_91 Column_92 Column_93 Column_94 Column_95 Column_96 Column_97 Column_98 Column_99 Column_100 Column_101 Column_102 Column_103 Column_104 Column_105 Column_106 Column_107 Column_108 Column_109 Column_110 Column_111 Column_112 Column_113 Column_114 Column_115 Column_116 Column_117 Column_118 Column_119 Column_120 Column_121 Column_122 Column_123 Column_124 Column_125 Column_126 Column_127 Column_128 Column_129 Column_130 Column_131 Column_132 Column_133 Column_134 Column_135 Column_136 Column_137 Column_138 Column_139 Column_140 Column_141 Column_142 Column_143 Column_144 Column_145 Column_146 Column_147 Column_148 Column_149 Column_150 Column_151 Column_152 Column_153 Column_154 Column_155 Column_156 Column_157 Column_158 Column_159 Column_160 Column_161 Column_162 Column_163 Column_164 Column_165 Column_166 Column_167 Column_168 Column_169 Column_170 Column_171 Column_172 Column_173 Column_174 Column_175 Column_176 Column_177 Column_178 Column_179 Column_180 Column_181 Column_182 Column_183 Column_184 Column_185 Column_186 Column_187 Column_188 Column_189 Column_190 Column_191 Column_192 Column_193 Column_194 Column_195 Column_196 Column_197 Column_198 Column_199 Column_200 Column_201 Column_202 Column_203 Column_204 Column_205 Column_206 Column_207 Column_208 Column_209 Column_210 Column_211 Column_212 Column_213 Column_214 Column_215 Column_216 Column_217 Column_218 Column_219 Column_220 Column_221 Column_222 Column_223 Column_224 Column_225 Column_226 Column_227 Column_228 Column_229 Column_230 Column_231 Column_232 Column_233 Column_234 Column_235 Column_236 Column_237 Column_238 Column_239 Column_240 Column_241 Column_242 Column_243 Column_244 Column_245 Column_246 Column_247 Column_248 Column_249 Column_250 Column_251 Column_252 Column_253 Column_254 Column_255 Column_256 Column_257 Column_258 Column_259 Column_260 Column_261 Column_262 Column_263 Column_264 Column_265 Column_266 Column_267 Column_268 Column_269 Column_270 Column_271 Column_272 Column_273 Column_274 Column_275 Column_276 Column_277 Column_278 Column_279 Column_280 Column_281 Column_282 Column_283 Column_284 Column_285 Column_286 Column_287 Column_288 Column_289 Column_290 Column_291 Column_292 Column_293 Column_294 Column_295 Column_296 Column_297 Column_298 Column_299 Column_300 Column_301 Column_302 Column_303 Column_304 Column_305 Column_306 Column_307 Column_308 Column_309 Column_310 Column_311 Column_312 Column_313 Column_314 Column_315 Column_316 Column_317 Column_318 Column_319 Column_320 Column_321 Column_322 Column_323 Column_324 Column_325 Column_326 Column_327 Column_328 Column_329 Column_330 Column_331 Column_332 Column_333 Column_334 Column_335 Column_336 Column_337 Column_338 Column_339 Column_340 Column_341 Column_342 Column_343 Column_344 Column_345 Column_346 Column_347 Column_348 Column_349 Column_350 Column_351 Column_352 Column_353 Column_354 Column_355 Column_356 Column_357 Column_358 Column_359 Column_360 Column_361 Column_362 Column_363 Column_364 Column_365 Column_366 Column_367 Column_368 Column_369 Column_370 Column_371 Column_372 Column_373 Column_374 Column_375 Column_376 Column_377 Column_378 Column_379 Column_380 Column_381 Column_382 Column_383 Column_384 Column_385 Column_386 Column_387 Column_388 Column_389 Column_390 Column_391 Column_392 Column_393 Column_394 Column_395 Column_396 Column_397 Column_398 Column_399 Column_400 Column_401 Column_402 Column_403 Column_404 Column_405 Column_406 Column_407 Column_408 Column_409 Column_410 Column_411 Column_412 Column_413 Column_414 Column_415 Column_416 Column_417 Column_418 Column_419 Column_420 Column_421 Column_422 Column_423 Column_424 Column_425 Column_426 Column_427 Column_428 Column_429 Column_430 Column_431 Column_432 Column_433 Column_434 Column_435 Column_436 Column_437 Column_438 Column_439 Column_440 Column_441 Column_442 Column_443 Column_444 Column_445 Column_446 Column_447 Column_448 Column_449 Column_450 Column_451 Column_452 Column_453 Column_454 Column_455 Column_456 Column_457 Column_458 Column_459 Column_460 Column_461 Column_462 Column_463 Column_464 Column_465 Column_466 Column_467 Column_468 Column_469 Column_470 Column_471 Column_472 Column_473 Column_474 Column_475 Column_476 Column_477 Column_478 Column_479 Column_480 Column_481 Column_482 Column_483 Column_484 Column_485 Column_486 Column_487 Column_488 Column_489 Column_490 Column_491 Column_492 Column_493 Column_494 Column_495 Column_496 Column_497 Column_498 Column_499 Column_500 Column_501 Column_502 Column_503 Column_504 Column_505 Column_506 Column_507 Column_508 Column_509 Column_510 Column_511 Column_512 Column_513 Column_514 Column_515 Column_516 Column_517 Column_518 Column_519 Column_520 Column_521 Column_522 Column_523 Column_524 Column_525 Column_526 Column_527 Column_528 Column_529 Column_530 Column_531 Column_532 Column_533 Column_534 Column_535 Column_536 Column_537 Column_538 Column_539 Column_540 Column_541 Column_542 Column_543 Column_544 Column_545 Column_546 Column_547 Column_548 Column_549 Column_550 Column_551 Column_552 Column_553 Column_554 Column_555 Column_556 Column_557 Column_558 Column_559 Column_560 Column_561 Column_562 Column_563 Column_564 Column_565 Column_566 Column_567 Column_568 Column_569 Column_570 Column_571 Column_572 Column_573 Column_574 Column_575 Column_576 Column_577 Column_578 Column_579 Column_580 Column_581 Column_582 Column_583 Column_584 Column_585 Column_586 Column_587 Column_588 Column_589 Column_590 Column_591 Column_592 Column_593 Column_594 Column_595 Column_596 Column_597 Column_598 Column_599 Column_600 Column_601 Column_602 Column_603 Column_604 Column_605 Column_606 Column_607 Column_608 Column_609 Column_610 Column_611 Column_612 Column_613 Column_614 Column_615 Column_616 Column_617 Column_618 Column_619 Column_620 Column_621 Column_622 Column_623 Column_624 Column_625 Column_626 Column_627 Column_628 Column_629 Column_630 Column_631 Column_632 Column_633 Column_634 Column_635 Column_636 Column_637 Column_638 Column_639 Column_640 Column_641 Column_642 Column_643 Column_644 Column_645 Column_646 Column_647 Column_648 Column_649 Column_650 Column_651 Column_652 Column_653 Column_654 Column_655 Column_656 Column_657 Column_658 Column_659 Column_660 Column_661 Column_662 Column_663 Column_664 Column_665 Column_666 Column_667 Column_668 Column_669 Column_670 Column_671 Column_672 Column_673 Column_674 Column_675 Column_676 Column_677 Column_678 Column_679 Column_680 Column_681 Column_682 Column_683 Column_684 Column_685 Column_686 Column_687 Column_688 Column_689 Column_690 Column_691 Column_692 Column_693 Column_694 Column_695 Column_696 Column_697 Column_698 Column_699
feature_infos=[0:1] [0:1] [0:1] [0:1] [0:0.95862799429235079] [0:1] [0:1] [0:1] [0:1] [0:0.95967895338550246] [0:1] [0:1] [0:0.23378748219429091] [0:0.23378748219429091] [0:0.23378748219429091] [0:0.71505503275596294] [0:1] [0:0.84833602870682834] [0:1] [0:1] [0:1] [0:1] [0:1] [0:0.59502026796789875] [0:0.61594240420305357] [0:1] [0:1] [0:1] [0:1] [0:1] [0:1] [0:0.12574358981816677] [0:0.12574358981816677] [0:1] [0:1] [0:1] [0:1] [0:1] [0:1] [0:1] [0:0.89098740570628032] [0:1] [0:1] [0:1] [0:0.40695351736720059] [0:1] [0:1] [0:1] [0:0.20756491705375829] [0:0.20756491705375829] [0:1] [0:1] [0:0.95088728466574635] [0:1] [0:1] [0:0.25148717963633355] [0:0.25148717963633355] [0:0.12574358981816677] [0:0.12574358981816677] [0:1] [0:0.40282875320453404] [0:1] [0:1] [0:1] [0:1] [0:0.94764584091584081] [0:1] [0:0.70274239822772011] [0:1] [0:1] [0:1] [0:0.52321552717138931] [0:0.41512983410751658] [0:0.20756491705375829] [0:1] [0:1] [0:1] [0:1] [0:1] [0:0.51655433067670431] [0:0.41420849708187585] [0:1] [0:1] [0:0.41512983410751658] [0:0.20756491705375829] [0:0.20756491705375829] [0:1] [0:0.9983339978951713] [0:1] [0:1] [0:1] [0:1] [0:0.81971889493541106] [0:0.51708508743092052] [0:0.25167457673740135] [0:0.25167457673740135] [0:0.25167457673740135] [0:0.25167457673740135] [0:1] [0:1] [0:1] [0:0.95781014419979549] [0:0.96079570580322671] [0:1] [0:1] [0:1] [0:0.9035695953675551] [0:1] [0:1] [0:1] [0:1] [0:1] [0:0.68021799952070272] [0:0.25148717963633355] [0:0.12574358981816677] [0:0.12574358981816677] [0:0.91732144501307544] [0:1] [0:1] [0:1] [0:1] [0:1] [0:1] [0:0.9603812699189217] [0:1] [0:1] [0:1] [0:1] [0:0.95363933080413743] [0:1] [0:1] [0:0.88200324502978089] [0:1] [0:1] [0:0.39805281720656427] [0:0.3254996681827495] [0:1] [0:1] [0:1] [0:1] [0:1] [0:1] [0:0.96092264860571497] [0:1] [0:0.85459580873468366] [0:1] [0:1] [0:0.72967665762500711] [0:0.20240080444028458] [0:0.20240080444028458] [0:0.19151919320396019] [0:1] [0:1] [0:1] [0:0.67952364530111364] [0:0.25167457673740135] [0:0.25167457673740135] [0:1] [0:0.25167457673740135] [0:0.25167457673740135] [0:0.25167457673740135] [0:1] [0:0.96090090533988826] [0:0.95062829167490148] [0:1] [0:1] [0:1] [0:1] [0:1] [0:1] [0:1] [0:0.84237750214102269] [0:0.64536698535863046] [0:0.23378748219429091] [0:0.23378748219429091] [0:1] [0:1] [0:1] [0:1] [0:1] [0:1] [0:1] [0:0.95987677648377923] [0:1] [0:0.95256999926652497] [0:1] [0:0.9591937354472494] [0:1] [0:1] [0:1] [0:1] [0:0.8590029042854137] [0:0.94943227270528208] [0:1] [0:0.64005493723574802] [0:1] [0:0.9591937354472494] [0:1] [0:0.69072704546881003] [0:1] [0:1] [0:1] [0:1] [0:0.33160218527979818] [0:0.20240080444028458] [0:0.9393850941446088] [0:0.20240080444028458] [0:0.20240080444028458] [0:1] [0:1] [0:1] [0:1] [0:0.76809912372983535] [0:1] [0:1] [0:1] [0:1] [0:1] [0:0.56324287587232891] [0:1] [0:1] [0:0.20240080444028458] [0:0.20240080444028458] [0:1] [0:1] [0:1] [0:1] [0:1] [0:1] [0:1] [0:1] [0:0.96122049899892403] [0:1] [0:1] [0:0.48013271757346448] [0:1] [0:1] [0:1] [0:1] [0:1] [0:1] [0:1] [0:1] [0:1] [0:1] [0:0.33946389013212735] [0:0.63422461475029368] [0:0.59879759355847229] [0:1] [0:1] [0:0.20756491705375829] [0:0.20756491705375829] [0:0.67649121210170238] [0:1] [0:0.7749868119811345] [0:0.23378748219429091] [0:0.23378748219429091] [0:1] [0:1] [0:1] [0:1] [0:1] [0:1] [0:0.58986275524330134] [0:0.60670965024084944] [0:1] [0:0.95349387684211517] [0:1] [0:1] [0:0.9869033100389113] [0:1] [0:1] [0:1] [0:1] [0:1] [0:0.72360647441100867] [0:0.50791129310039629] [0:0.5082763059876404] [0:1] [0:1] [0:1] [0:1] [0:0.84075359893501256] [0:1] [0:1] [0:1] [0:1] [0:1] [0:1] [0:1] [0:1] [0:1] [0:0.83193950387878224] [0:1] [0:1] [0:1] [0:0.81173393637563929] [0:1] [0:1] [0:0.87083075381341979] [0:1] [0:1] [0:1] [0:1] [0:1] [0:0.41490942157065175] [0:1] [0:1] [0:1] [0:1] [0:1] [0:0.89676808499254923] [0:0.95229284715835216] [0:1] [0:1] [0:1] [0:1] [0:1] [0:1] [0:1] [0:0.96122049899892403] [0:0.9591937354472494] [0:0.95042437604338514] [0:0.95772139094438635] [0:1] [0:1] [0:1] [0:1] [0:1] [0:1] [0:1] [0:0.2477976203932786] [0:0.70754007254523876] [0:0.2477976203932786] [0:0.2477976203932786] [0:0.2477976203932786] [0:0.2477976203932786] [0:1] [0:0.94267442351375308] [0:1] [0:1] [0:1] [0:1] [0:1] [0:0.12574358981816677] [0:1] [0:1] [0:1] [0:1] [0:0.69489947312837796] [0:0.7529340587130825] [0:0.6123940504576264] [0:1] [0:1] [0:1] [0:0.51725240442134013] [0:0.39007645318365713] [0:0.78831602596812067] [0:0.30766830996726147] [0:0.30766830996726147] [0:1] [0:1] [0:0.74537040964461498] [0:1] [0:1] [0:0.95110089794530617] [0:1] [0:1] [0:1] [0:1] [0:1] [0:1] [0:1] [0:1] [0:1] [0:1] [0:1] [0:1] [0:0.90103720245539076] [0:1] [0:1] [0:0.20240080444028458] [0:0.20240080444028458] [0:0.2477976203932786] [0:0.2477976203932786] [0:0.78701438126842849] [0:1] [0:1] [0:1] [0:1] [0:0.38032365413080021] [0:0.30766830996726147] [0:1] [0:1] [0:1] [0:1] [0:1] [0:1] [0:1] [0:1] [0:0.81291083050087787] [0:0.9365770964137643] [0:1] [0:1] [0:1] [0:1] [0:1] [0:1] [0:1] [0:1] [0:0.23378748219429091] [0:0.23378748219429091] [0:0.55735777508192341] [0:0.21822036650243326] [0:1] [0:1] [0:1] [0:1] [0:1] [0:0.67030541457117898] [0:1] [0:1] [0:1] [0:1] [0:1] [0:1] [0:1] [0:1] [0:0.94136102207233685] [0:0.4235434542469963] [0:0.20240080444028458] [0:1] [0:1] [0:1] [0:1] [0:1] [0:1] [0:1] [0:1] [0:1] [0:1] [0:1] [0:1] [0:1] [0:1] [0:0.78571544818075545] [0:1] [0:1] [0:0.79842946049503138] [0:1] [0:0.7989087258667954] [0:1] [0:1] [0:1] [0:1] [0:1] [0:0.96058572455632607] [0:1] [0:0.50802819321883863] [0:0.50802819321883863] [0:0.25148717963633355] [0:0.12574358981816677] [0:0.81121566896879194] [0:1] [0:1] [0:0.6189841344133874] [0:1] [0:1] [0:1] [0:1] [0:0.83942017981023109] [0:1] [0:1] [0:1] [0:1] [0:1] [0:0.98455082342592104] [0:1] [0:0.74373656850810343] [0:0.12574358981816677] [0:0.12574358981816677] [0:0.12574358981816677] [0:0.12574358981816677] [0:1] [0:1] [0:1] [0:0.79187106237751181] [0:1] [0:1] [0:1] [0:1] [0:1] [0:1] [0:1] [0:0.82464179285264472] [0:0.88433948932212736] [0:1] [0:1] [0:1] [0:0.95570183365135297] [0:1] [0:1] [0:1] [0:1] [0:1] [0:1] [0:1] [0:0.76674349369657968] [0:1] [0:1] [0:1] [0:1] [0:1] [0:0.79441677100371821] [0:0.95651904360152284] [0:1] [0:1] [0:1] [0:1] [0:1] [0:0.95327740474985101] [0:1] [0:1] [0:1] [0:1] [0:1] [0:1] [0:0.95987677648377923] [0:1] [0:0.76965136553478464] [0:0.4140305291012859] [0:0.33946389013212735] [0:0.58398870577559259] [0:0.23378748219429091] [0:0.23378748219429091] [0:0.23378748219429091] [0:0.9547611610629867] [0:1] [0:1] [0:0.45140255251314038] [0:0.2477976203932786] [0:0.2477976203932786] [0:1] [0:1] [0:0.95958085858452447] [0:1] [0:1] [0:0.93720478687753705] [0:1] [0:1] [0:1] [0:1] [0:1] [0:0.96090090533988826] [0:0.82580994270845309] [0:1] [0:1] [0:1] [0:1] [0:1] [0:1] [0:1] [0:1] [0:1] [0:0.70685078785596311] [0:1] [0:0.91310508998630224] [0:0.95408134850838489] [0:1] [0:1] [0:1] [0:1] [0:1] [0:0.9547611610629867] [0:1] [0:1] [0:0.95677067614811229] [0:0.79343466174323052] [0:1] [0:0.4744930468760809] [0:0.30766830996726147] [0:1] [0:1] [0:0.51368794688365704] [0:0.32366557403678503] [0:1] [0:1] [0:0.21822036650243326] [0:1] [0:1] [0:1] [0:1] [0:0.42747131488372703] [0:1] [0:0.75346984249021032] [0:0.81356898488134954] [0:1] [0:1] [0:1] [0:0.94537196014160552] [0:0.95684915693852701] [0:1] [0:0.95618828330324579] [0:1] [0:0.30766830996726147] [0:1] [0:1] [0:1] [0:1] [0:1] [0:0.87460408105274334] [0:0.46125342418438586] [0:1] [0:1] [0:1] [0:1] [0:1] [0:1] [0:1] [0:1] [0:0.96058723672375668] [0:1] [0:0.20240080444028458] [0:0.20240080444028458] [0:1] [0:1] [0:0.91818086918019659] [0:1] [0:1] [0:0.93531439273984041] [0:1] [0:0.38283527858447852] [0:0.95522635171150305] [0:1] [0:0.72072912981286485] [0:0.20240080444028458] [0:0.19151919320396019] [0:1] [0:0.69558208834052859] [0:0.82591673252546549] [0:0.79150865757419375] [0:0.80656620900450116] [0:0.79442102911043477] [0:0.83375981512317565] [0:0.86925241274883092] [0:0.7614739930929767] [0:0.82246807768413888] [0:0.69230388823937816] [0:0.69091250863358944] [0:0.78225199934986167] [0:1] [0:1] [0:0.70176978141571544] [0:0.8365418825593387] [0:1] [0:1] [0:1] [0:1] [0:1] [0:1] [0:1] [0:1] [0:1] [0:1] [0:1] [0:0.20240080444028458] [0:0.20240080444028458] [0:1] [0:1] [0:1] [0:1] [0:1] [0:0.19151919320396019] [0:1] [0:0.94452902174325248] [0:0.41023503009042028] [0:1] [0:0.96027919927326955] [0:1] [0:1] [0:1] [0:1] [0:1] [0:1] [0:1] [0:1] [0:1] [0:1] [0:1] [0:1] [0:1] [0:1] [0:1] [0:0.20756491705375829] [0:0.20756491705375829] [0:1] [0:1] [0:1] [0:1] [0:1]
tree_sizes=3403 3458 3458 3456 3477 3484 3468 3484 3462 3478 3462 3486 3487 3523 3486 3535 3500 3505 3495 3510 3501 3504 3516 3516 3518 3500 3534 3542 3570 3505 3514 3570 3532 3560 3545 3555 3502 3530 3564 3583 3546 3572 3537 3595 3576 3540 3557 3555 3529 3565 3537 3576 3551 3580 3540 3541 3576 3533 3551 3538 3521 3581 3492 3579 3565 3517 3570 3563 3602 3521 3544 3509 3563 3542 3557 3571 3553 3548 3543 3591 3604 3535 3571 3589 3545 3537 3548 3511 3564 3599 3543 3498 3520 3551 3533 3524 3540 3522 3560 3601 3529 3524 3554 3548 3585 3517 3534 3557 3528 3531 3603 3556 3562 3610 3533 3521 3565 3571 3521 3557 3578 3551 3553 3549 3536 3542 3524 3569 3522 3578 3533 3576 3547 3555 3522 3507 3553 3520 3529 3537 3596 3549 3552 3550 3573 3527 3568 3555 3557 3523 3535 3553 3572 3589 3547 3577 3541 3515 3559 3556 3520 3566 3575 3506 3550 3505 3506 3557 3557 3569 3555 3526 3554 3521 3562 3528 3539 3526 3522 3590 3572 3518 3514 3547 3542 3559 3524 3540 3563 3516 3596 3531 3515 3558 3516 3545 3511 3578 3544 3521 3522 3538 3546 3520 3523 3509 3541 3563 3536 3550 3528 3534 3536 3580 3539 3524 3504 3554 3551 3538 3551 3541 3527 3518 3592 3546 3539 3557 3565 3546 3549 3518 3565 3552 3569 3510 3594 3527 3523 3571 3551 3524 3569 3536 3571 3555 3550 3517 3549 3535 3537 3515 3573 3513 3562 3513 3545 3553 3527 3524 3558 3548 3503 3553 3552 3509 3498 3520 3538 3546 3590 3500 3543 3573 3561 3565 3517 3559 3538 3517 3565 3529 3573 3507 3549 3523 3567 3506 3562 3505 3550 3509 3546 3577 3529 3560 3564 3541 3584 3557 3505 3520 3499 3538 3556 3534 3535 3529 3558 3569 3525 3546 3563 3529 3553 3529 3489 3502 3543 3552 3523 3543 3543 3511 3531 3538 3562 3533 3558 3518 3533 3508 3543 3528 3516 3535 3507 3530 3505 3575 3508 3531 3538 3519 3552 3530 3546 3527 3548 3534 3514 3518 3521 3544 3499 3571 3547 3527 3525 3528 3524 3569 3531 3535 3528 3535 3526 3535 3558 3530 3507 3527 3507 3574 3525 3543 3559 3524 3525 3556 3523 3519 3489 3548 3592 3568 3542 3526 3517 3532 3503 3568 3542 3502 3541 3553 3583 3527 3559 3542 3506 3536 3529 3522 3520 3499 3516 3556 3526 3506 3505 3531 3558 3507 3541 3549 3522 3544 3554 3532 3535 3555 3520 3577 3522 3581 3525 3539 3534 3548 3544 3551 3550 3550 3523 3556 3539 3541 3548 3557 3551 3523 3527 3506 3536 3517 3552 3525 3532 3545 3561 3545 3534 3547 3538 3510 3515 3514 3512 3510 3570 3499 3510 3530 3579 3547 3557 3539 3523 3520 3538 3547 3511 3536 3523 3521 3547 3510 3551 3536 3565 3548 3519 3536 3532 3512 3548 3553 3513 3499 3535 3511 3568 3537 3546 3520 3534 3525 3495 3520 3522 3525 3551 3497 3546 3514 3513 3499 3541 3528 3556 3543 3540 3548 3509 3541 3537 3554 3558 3503 3542 3500 3553 3541 3543 3541 3526 3520 3549 3537 3525 3540 3530 3556 3487 3529 3521 3526 3529 3557 3548 3519 3501 3557 3545 3520 3506 3553 3548 3555 3549 3562 3562 3525 3528 3512 3474 3539 3495 3553 3521 3527 3532 3519 3537 3534 3513 3543 3585 3530 3552 3586 3575 3522 3546 3524 3566 3563 3558 3558 3549 3553 3527 3535 3513 3526 3513 3529 3498 3557 3535 3532 3579 3513 3532 3540 3510 3528 3517 3527 3519 3565 3519 3496 3527 3521 3547 3521 3542 3554 3600 3504 3530 3527 3519 3534 3500 3542 3511 3533 3521 3545 3527 3561 3526 3497 3520 3516 3595 3511 3522 3569 3514 3544 3525 3570 3531 3532 3563 3557 3569 3507 3504 3551 3515 3521 3566 3565 3531 3539 3532 3519 3553 3603 3566 3558 3532 3536 3527 3529 3518 3556 3552 3549 3560 3530 3570 3525 3562 3574 3546 3517 3487 3568 3566 3529 3539 3509 3548 3542 3533 3517 3526 3558 3539 3562 3528 3521 3531 3500 3542 3572 3512 3548 3525 3552 3544 3572 3571 3536 3521 3550 3550 3520 3558 3569 3534 3553 3533 3554 3509 3554 3569 3524 3546 3493 3542 3556 3533 3518 3518 3537 3579 3553 3520 3541 3573 3554 3538 3535 3528 3533 3555 3547 3547 3563 3554 3542 3519 3534 3531 3512 3557 3541 3568 3514 3523 3532 3623 3533 3553 3528 3582 3550 3566 3518 3544 3537 3535 3566 3550 3542 3538 3557 3577 3569 3556 3550 3580 3574 3545 3535 3539 3570 3537 3543 3536 3524 3549 3527 3533 3545 3544 3526 3553 3561 3533 3554 3546 3545 3577 3575 3533 3513 3546 3545 3568 3585 3535 3538 3563 3572 3557 3562 3551 3562 3565 3543 3523 3546 3557 3528 3508 3550 3550 3497 3575 3548 3532 3552 3531 3587 3538 3558 3517 3540 3533 3528 3523 3579 3571 3553 3539 3547 3523 3547 3530 3537 3547 3558 3559 3518 3530 3559 3547 3524 3556 3579 3475 3494 3533 3553 3548 3548 3541 3548 3557 3553 3578 3521 3496 3541 3557 3535 3545 3531 3574 3556 3541 3552 3545 3519 3531 3561 3530 3557 3530 3517 3525 3527 3554 3523 3542 3544 3548 3557 3557 3547 3534 3523 3557 3560 3526 3541 3532 3526 3538 3567 3525 3539 3535 3555 3511 3559 3545 3571 3526 3548 3559 3535 3552 3549 3546 3534 3549 3550 3540 3566 3585 3557 3583 3523 3524 3521 3541 3547 3556 3534 3503 3536 3531 3546 3511 3534 3513 3520 3538 3545 3543 3541 3548 3526 3566 3546 3522 3539 3533 3546 3534 3520 3528 3540 3549 3547 3531 3516 3558 3539 3526 3545 3564 3563 3527 3535 3522 3569 3556 3539 3529 3530 3569 3542 3579 3543 3527 3536 3522 3533 3513 3576 3560 3518 3577 3549 3523 3539 3546 3517 3518 3560 3549 3554 3545 3511 3553 3510 3543 3509 3542 3516

Tree=0
num_leaves=31
num_cat=0
split_feature=615 18 676 539 484 483 76 682 10 637 496 121 340 425 197 138 29 29 121 425 654 688 354 280 684 684 637 637 280 379
split_gain=1739.57 1722.78 1610.44 1444.54 1210.58 868.784 736.714 566.955 478.731 461.761 274.034 249.66 221.928 214.832 194.486 193.363 171.883 168.989 120.369 116.669 96.677 83.5076 82.7788 81.7554 75.3395 80.7146 70.7348 70.3961 68.9987 67.1049
threshold=0.30367995706218048 1.0000000180025095e-35 0.27843936413325249 1.0000000180025095e-35 0.34314839012035198 1.0000000180025095e-35 1.0000000180025095e-35 0.43183443808124611 0.78562178029717955 0.20605564046360167 0.47366489227710817 1.0000000180025095e-35 0.4558088885754758 0.41919953809156013 0.35146915919159577 0.36474339428494568 0.49062963113570052 0.47867900128566093 0.50598196500062953 0.44294526273209928 0.36360969222485795 0.54699954284191021 0.1925819960802749 0.54330718368689046 0.48777239277242118 0.57875260702831677 0.95825568000861272 0.21842379609302032 0.36764143225604079 0.54764845782488825
decision_type=2 2 2 2 2 2 2 2 2 2 2 2 2 2 2 2 2 2 2 2 2 2 2 2 2 2 2 2 2 2
left_child=1 2 3 4 5 6 7 8 9 10 13 15 -12 16 -8 17 18 19 20 23 21 24 -9 26 28 -26 -11 -6 29 -1
right_child=-2 -3 -4 -5 27 -7 14 22 -10 11 12 -13 -14 -15 -16 -17 -18 -19 -20 -21 -22 -23 -24 -25 25 -27 -28 -29 -30 -31
leaf_value=-2.6279355737307108 -2.2254309550434588 -1.874610434115384 -2.1588080039288919 -1.874610434115384 -2.0043322451948713 -1.9823919811645139 -2.3570003093800675 -2.252945660491922 -1.9481756170219331 -2.5862027476128864 -2.5657359682637533 -2.0624998877550835 -1.8746104341153842 -2.2033059322084756 -1.874610434115384 -2.0918576148862869 -2.4587240661605665 -2.3480379821752724 -2.3037406677369203 -2.1985345459458339 -2.4894836046775857 -2.3615799600946059 -2.6470448546341498 -2.2104514865148475 -2.2179146210126133 -2.6127144359444268 -2.5141970908215252 -2.3380710864266434 -2.5024957233090004 -2.351702282082857
leaf_weight=2145.5542778521776 31.782632909715176 8.2207624837756139 20.584271416068077 6.7966933920979491 8.4796841368079168 5.5668155401945105 16.376794554293159 12.687160998582838 2.7186773568391791 518.55534061044455 2.4597557038068762 2.3950252905488005 2.2008340507745743 3.0423294231295577 2.3950252905488005 2.071373224258422 15.664760008454321 8.0265712440013868 2.9128685966134062 2.0066428110003462 13.010813064873217 2.977599009871482 1.4887995049357403 1.4887995049357403 2.3302948772907248 2.9128685966134071 36.507953077554703 1.9419123977422703 11.068900667130945 2.2008340507745734
leaf_count=33146 491 127 318 105 131 86 253 196 42 8011 38 37 34 47 37 32 242 124 45 31 201 46 23 23 36 45 564 30 171 34
internal_value=-2.59331 -2.59739 -2.59947 -2.60267 -2.60442 -2.6064 -2.60764 -2.60974 -2.61134 -2.61199 -2.62237 -2.57192 -2.23937 -2.62318 -2.29545 -2.57407 -2.62376 -2.57583 -2.62494 -2.5791 -2.62537 -2.62619 -2.29434 -2.58047 -2.62655 -2.43725 -2.58147 -2.06652 -2.62701 -2.62765
internal_weight=0 2864.64 2856.42 2835.84 2829.04 2818.62 2813.05 2794.28 2780.11 2777.39 2206.34 571.052 4.66059 2201.68 18.7718 568.657 2198.63 566.585 2182.97 558.559 2180.06 2167.04 14.176 556.552 2164.07 5.24316 555.063 10.4216 2158.82 2147.76
internal_count=44746 44255 44128 43810 43705 43544 43458 43168 42949 42907 34085 8822 72 34013 290 8785 33966 8753 33724 8629 33679 33478 219 8598 33432 81 8575 161 33351 33180
is_linear=0
shrinkage=1


Tree=1
num_leaves=31
num_cat=0
split_feature=615 676 18 330 76 483 682 637 10 496 321 121 121 425 226 654 28 379 416 688 652 684 477 90 615 630 425 637 562 90
split_gain=1150.59 1015.34 844.071 792.224 537.346 477.969 405.221 403.863 231.036 203.383 177.589 169.086 132.735 119.378 99.5922 97.5655 74.1574 73.017 70.576 64.4623 62.3325 61.6681 60.5161 60.4952 75.4918 56.8146 56.3739 58.0167 57.0391 55.1927
threshold=0.28489390280280463 0.27843936413325249 1.0000000180025095e-35 1.0000000180025095e-35 1.0000000180025095e-35 1.0000000180025095e-35 0.43183443808124611 0.20605564046360167 0.97931399714617551 0.47366489227710817 1.0000000180025095e-35 0.41937904972106999 1.0000000180025095e-35 0.4620279332552803 0.50970658057438956 0.36360969222485795 0.45989803784848665 0.54764845782488825 0.20006285422968054 0.54699954284191021 0.42420766138893889 0.48777239277242118 1.0000000180025095e-35 0.39020843871111582 0.42820878808189955 0.69706380519315603 0.68493994873810582 0.61611698727739128 0.44385077500263337 0.43764994374815219
decision_type=2 2 2 2 2 2 2 2 2 2 2 2 2 2 2 2 2 2 2 2 2 2 2 2 2 2 2 2 2 2
left_child=1 2 3 4 5 6 7 8 9 11 12 13 20 14 15 16 17 19 -6 21 22 25 26 24 -2 29 27 28 -9 -1
right_child=23 -3 -4 -5 18 -7 -8 10 -10 -11 -12 -13 -14 -15 -16 -17 -18 -19 -20 -21 -22 -23 -24 -25 -26 -27 -28 -29 -30 -31
leaf_value=-0.032049843442921964 0.14748682997067003 0.28585350076298272 0.37591396593404841 0.3428627263515629 0.24602052947438147 0.34751767476596102 0.21944272970767464 0.0065884198522499554 0.40079382419840037 0.24734851299576879 0.34984149152066829 0.23845111585600762 0.3137564629258775 0.26768524214804817 0.21991121293827814 0.09951310913647983 0.18611727107020845 0.21957874920103768 -0.054735193907228752 0.1799967280065706 0.19596783341595281 0.12910244978525859 0.30267978723885852 0.51287359862805626 0.2873677872628651 0.3045297950213629 0.3267966957719442 0.059311371934969298 0.23356453039817066 0.21802931724275157
leaf_weight=2107.8973123878241 14.794033929705618 29.855234496295452 14.299397855997084 15.88803658634424 22.728674918413166 9.1492908000946027 18.392168834805489 504.13980215787888 3.1664884537458411 6.7534545958042136 4.0735503658652297 5.9613691717386237 3.7829580977559081 3.4033904969692221 4.0215929821133605 14.635591335594652 3.9609660729765883 2.9164826348423949 2.1337238922715178 3.6214858442544928 4.8038459047675124 5.9875705242156974 1.8235628902912129 2.1116550564765921 27.715472616255283 1.2564878165721882 1.4384914636611927 61.361259408295155 2.7831924110651007 2.2086222991347304
leaf_count=33428 172 321 124 161 268 86 220 7684 29 75 50 73 38 38 64 205 62 37 27 46 73 80 28 24 315 20 16 905 42 35
internal_value=0 -0.00420769 -0.00726491 -0.00920908 -0.0112051 -0.0132766 -0.014469 -0.0160334 -0.0259851 -0.0266099 0.0208598 -0.0274681 0.0185498 -0.0282055 -0.0286746 -0.0291413 -0.0300262 -0.0304293 0.220209 -0.030773 0.0166121 -0.0311335 0.0151047 0.251662 0.238687 -0.0315879 0.0141842 0.0133929 0.0078346 -0.0317881
internal_weight=0 2862.44 2832.59 2818.29 2802.4 2777.54 2768.39 2750 2165.79 2162.62 584.207 2155.87 580.133 2149.91 2146.51 2142.48 2127.85 2123.89 24.8624 2120.97 576.35 2117.35 571.546 44.6212 42.5095 2111.36 569.723 568.284 506.923 2110.11
internal_count=44746 44235 43914 43790 43629 43334 43248 43028 34192 34163 8836 34088 8786 34015 33977 33913 33708 33646 295 33609 8748 33563 8675 511 487 33483 8647 8631 7726 33463
is_linear=0
shrinkage=0.05


Tree=2
num_leaves=31
num_cat=0
split_feature=615 484 18 330 76 637 483 10 496 379 100 425 100 226 121 280 379 138 477 121 27 688 280 652 654 43 90 313 496 637
split_gain=847.981 734.602 599.77 601.565 492.481 383.848 382.578 160.232 138.962 136.674 137.549 113.646 95.057 88.7075 81.6164 76.5644 71.7388 70.0621 56.9266 56.9335 53.8859 52.5123 49.8231 49.0121 48.1582 44.658 44.9448 44.4732 43.7771 43.1205
threshold=0.22168948437600791 0.34314839012035198 1.0000000180025095e-35 1.0000000180025095e-35 0.27257423183700763 0.20605564046360167 1.0000000180025095e-35 0.97931399714617551 0.47366489227710817 0.34654557268052671 0.47601100766151466 0.41919953809156013 1.0000000180025095e-35 0.50758094519935171 1.0000000180025095e-35 0.36764143225604079 0.37368297659980459 0.36474339428494568 1.0000000180025095e-35 0.36606179873889416 0.43853243735728142 0.54699954284191021 0.32632249006680497 0.42420766138893889 0.48757089162432471 0.52795508766260857 0.43764994374815219 0.54165949227976473 0.50477372127539077 0.95825568000861272
decision_type=2 2 2 2 2 2 2 2 2 2 2 2 2 2 2 2 2 2 2 2 2 2 2 2 2 2 2 2 2 2
left_child=1 2 3 4 5 6 7 8 9 10 11 13 14 15 16 18 17 22 19 20 21 24 23 27 25 26 -1 29 -10 -7
right_child=-2 -3 -4 -5 -6 12 -8 -9 28 -11 -12 -13 -14 -15 -16 -17 -18 -19 -20 -21 -22 -23 -24 -25 -26 -27 -28 -29 -30 -31
leaf_value=-0.030910058442730006 0.19351308492958796 0.30929086841888681 0.2742631122655208 0.26305258636879042 0.17845016562128393 0.010641793913050226 0.28692702174305834 0.28495753468395629 0.30765214722092882 0.15883777108468813 0.25358964871238932 0.21859595177466679 0.30929652628286919 0.18159173844593415 0.23552265319378796 0.09706296623847184 0.37944733783429391 0.23412503641405469 0.12904098489844959 0.12320931217938064 0.11404088177857884 0.1471222546719313 0.21671618910725196 0.16141658004024456 0.099743818405831311 0.26991755294786918 0.17780409404730116 0.27131722430897981 0.070194183970871779 0.063782999218543121
leaf_weight=2062.6819339171052 55.30256175249815 18.569360241293907 18.931900188326836 20.305868960916996 34.214938141405582 540.38255830854177 9.9564740732312185 4.1956290602684012 3.8130426034331313 10.050969086587427 4.3906517699360839 4.7168818563222876 2.8812645301222792 5.0796410292387 4.4184281677007666 12.243995636701582 1.3836207538843144 3.7608863711357108 5.7305486872792235 6.144521713256835 6.543881729245185 4.1920370459556571 3.1261032298207274 5.7833546325564376 7.1251921057701102 1.2365685924887646 2.5826096460223189 1.6892622336745251 3.9532836303114891 41.075014293193817
leaf_count=33407 525 178 127 161 334 8086 74 29 29 128 68 44 38 66 35 178 20 31 85 68 100 46 38 74 92 20 34 24 43 564
internal_value=0 -0.00416658 -0.00622149 -0.00810875 -0.0100799 -0.0124178 -0.0222959 -0.0237314 -0.0243365 -0.0251053 -0.0259763 -0.0265557 0.022791 -0.0271029 0.0214189 -0.0276056 0.0198349 0.0189998 -0.0283338 -0.0287652 -0.0292132 -0.0296644 0.0176332 0.0165765 -0.0300218 -0.0304692 -0.0306491 0.01514 0.186779 0.0143958
internal_weight=0 2851.16 2832.59 2813.66 2793.35 2759.14 2154.64 2144.68 2140.49 2132.72 2122.67 2118.28 604.5 2113.56 601.619 2108.48 597.201 595.817 2096.24 2090.51 2084.36 2077.82 592.056 588.93 2073.63 2066.5 2065.26 583.147 7.76633 581.458
internal_count=44746 44221 44043 43916 43755 43421 34511 34437 34408 34336 34208 34140 8910 34096 8872 34030 8837 8817 33852 33767 33699 33599 8786 8748 33553 33461 33441 8674 72 8650
is_linear=0
shrinkage=0.05


Tree=3
num_leaves=31
num_cat=0
split_feature=676 615 18 330 682 29 637 483 496 100 10 28 29 321 121 652 280 477 43 647 321 280 121 227 90 688 637 10 627 27
split_gain=703.181 650.383 452.477 426.707 351.179 351.126 300.083 243.887 152.013 139.075 127.444 116.964 106.703 81.0046 80.6519 74.0247 72.9095 72.629 72.1574 57.2955 53.3234 50.1706 45.9149 45.5517 44.2162 43.7255 41.1785 40.2642 40.155 39.3146
threshold=0.27843936413325249 0.22168948437600791 1.0000000180025095e-35 1.0000000180025095e-35 0.30947109798700423 0.26377671939208752 0.26888488469403687 1.0000000180025095e-35 0.43834391077550938 0.40936263953455027 0.97931399714617551 0.26702387277040834 0.47867900128566093 1.0000000180025095e-35 0.41937904972106999 0.3747392452276111 0.36764143225604079 0.406267453637912 0.62903069653455745 0.22452231363127015 0.5104549976812035 0.41004628232778623 1.0000000180025095e-35 0.59293576770650946 0.41580255025734192 0.45175793309453011 0.53055758082002291 0.56287672962776225 0.68224868965430419 0.4320605421025247
decision_type=2 2 2 2 2 2 2 2 2 2 2 2 2 2 2 2 2 2 2 2 2 2 2 2 2 2 2 2 2 2
left_child=1 2 3 4 5 6 7 9 12 10 14 13 -7 15 16 21 17 18 20 -14 23 22 26 24 25 28 27 -8 29 -1
right_child=-2 -3 -4 -5 -6 8 11 -9 -10 -11 -12 -13 19 -15 -16 -17 -18 -19 -20 -21 -22 -23 -24 -25 -26 -27 -28 -29 -30 -31
leaf_value=-0.030223469214527812 0.20838631354682083 0.15573686879920945 0.22011189145483168 0.20049785410737719 0.15669309185879923 0.023987425335009638 0.0029332056191634648 0.2117982069287952 0.25737026519482509 0.17036225296613169 0.22669892405918565 0.4099442392701696 0.12000318966992157 0.21455515651792489 0.13384428755547134 0.21157695270156518 0.083521486782978563 0.13479142893506732 0.35691422414553986 0.43396007424163269 0.29089436962178639 0.3000484015221852 0.19395994459686308 0.22174686118148781 0.16407420024920844 0.086761688029991346 0.041312018853905924 0.27669699389488778 0.24316038976356336 0.079480865068321957
leaf_weight=2097.0817680284381 39.743772312998772 62.808521151542664 21.769044280052185 24.155591681599617 31.0272072032094 76.439451176673174 313.7799574509263 10.929643318057058 10.172218278050421 9.0727944932878 4.9854341596364966 1.9334497973322857 27.485349863767627 5.2933592498302451 7.8241881877183905 4.8685453087091437 14.824569284915922 6.8506313487887374 1.2151441052556027 1.5343041419982899 1.3060288839042176 1.5431221872568119 3.5308480858802787 1.8141515552997578 2.9640888646244994 8.1014160402119142 97.331905208528042 1.3488707840442646 1.3482506722211827 8.1986242160201055
leaf_count=34501 329 517 124 161 345 1206 4675 68 65 113 29 24 371 43 70 56 191 88 16 19 21 16 24 28 35 103 1361 13 22 112
internal_value=0 -0.00338357 -0.00695452 -0.00873453 -0.0105705 -0.0124773 -0.0162601 -0.0237981 0.072781 -0.0249871 -0.025809 0.0219278 0.0549762 0.0201737 -0.0263941 0.0177378 -0.026979 -0.0277484 -0.0282732 0.136602 -0.0284939 0.0154776 0.014422 -0.0286907 -0.0289052 -0.0291757 0.0128851 0.00410502 -0.0296216 -0.0297962
internal_weight=0 2861.54 2798.73 2776.96 2752.81 2721.78 2606.15 2176.52 115.631 2165.59 2156.51 429.63 105.459 427.697 2151.53 422.403 2143.7 2128.88 2122.03 29.0197 2120.81 417.535 415.992 2119.51 2117.69 2114.73 412.461 315.129 2106.63 2105.28
internal_count=44746 44417 43900 43776 43615 43270 41609 35397 1661 35329 35216 6212 1596 6188 35187 6145 35117 34926 34838 390 34822 6089 6073 34801 34773 34738 6049 4688 34635 34613
is_linear=0
shrinkage=0.05


Tree=4
num_leaves=31
num_cat=0
split_feature=484 676 615 332 638 76 682 29 483 10 425 647 121 654 404 100 280 29 340 477 321 321 330 90 562 652 497 688 239 291
split_gain=586.616 512.821 471.403 370.271 354.844 294.61 255.716 247.088 199.371 133.655 124.448 124.432 109.418 86.982 85.8405 85.9304 70.3055 62.289 68.8738 60.8802 58.5393 55.3016 53.5013 47.9366 47.6754 47.3972 44.6404 41.5398 46.045 40.8398
threshold=0.34314839012035198 0.27843936413325249 0.22168948437600791 0.38441916005754678 1.0000000180025095e-35 0.37799106657848464 0.43183443808124611 0.28432203757366153 1.0000000180025095e-35 0.78562178029717955 0.41919953809156013 0.277289702568489 0.41937904972106999 0.48757089162432471 0.61096950273110118 0.40936263953455027 0.36764143225604079 0.47867900128566093 0.46703383267201826 1.0000000180025095e-35 1.0000000180025095e-35 0.45914280789536804 0.24772194138808681 0.41580255025734192 0.44385077500263337 0.42420766138893889 0.38876783312045554 0.40554317995150752 0.44756723630278955 0.67800925631036202
decision_type=2 2 2 2 2 2 2 2 2 2 2 2 2 2 2 2 2 2 2 2 2 2 2 2 2 2 2 2 2 2
left_child=1 2 3 4 5 6 7 8 9 10 11 12 13 14 15 16 19 18 -9 21 -13 22 23 24 25 26 27 29 -29 -1
right_child=-2 -3 -4 -5 -6 -7 -8 17 -10 -11 -12 20 -14 -15 -16 -17 -18 -19 -20 -21 -22 -23 -24 -25 -26 -27 -28 28 -30 -31
leaf_value=-0.029725334289687929 0.23180657380399883 0.16843124273653076 0.12596763049861634 0.20433931596125474 0.18650270594725166 0.14605515633567284 0.14654914106262848 0.020606948680498911 0.17484417023796012 0.19475948746749172 0.17169400109010174 0.015532191496245164 0.13320981987741032 0.13316861322200274 0.28780986603935732 0.130182612998931 0.078950242263470971 0.11899952378071812 0.21293372385242326 0.10606292629588487 0.18012899758051362 0.19655484054861622 0.14794724619942859 0.14695573112637933 0.097435922569397163 0.074621263440189503 0.060277122500495564 0.026898104297191097 0.32724224056451778 0.24771026746355337
leaf_weight=2244.1067050099373 26.912765085697174 43.107204586267471 66.739928044378757 20.28074000030756 22.76140022277832 29.260057166218758 24.738255962729454 63.107921108603477 13.336444884538649 7.2928303629159918 8.4739233404397947 165.82503884285688 11.12481229752302 8.7736286744475347 2.1972911506891242 8.9035929888486844 16.016167633235455 32.407446064054966 5.0256444215774527 8.6717433333396894 5.583769664168357 2.7712706848978987 4.3649539873003951 3.9413057789206496 7.6021718531846991 11.199784621596335 14.075319670140741 11.640212252736088 1.4332191199064261 1.3272595927119244
leaf_count=37553 202 312 493 112 116 245 220 983 76 42 71 2417 85 109 36 107 191 390 30 103 39 33 36 42 118 151 237 161 15 21
internal_value=0 -0.00272285 -0.00533639 -0.0085158 -0.0100936 -0.0117429 -0.0134632 -0.0149518 -0.017973 -0.0189833 -0.0195975 -0.0202383 -0.0232281 -0.0239696 -0.0245592 -0.024853 -0.0254462 0.0619355 0.0347933 -0.0261697 0.0208941 -0.0266677 -0.0269367 -0.0272693 -0.0275689 -0.0279851 -0.0284907 -0.0290439 0.0598243 -0.0295613
internal_weight=0 2866.09 2822.98 2756.24 2735.96 2713.2 2683.94 2659.2 2558.66 2545.33 2538.03 2529.56 2358.15 2347.02 2338.25 2336.05 2327.15 100.541 68.1336 2311.13 171.409 2302.46 2299.69 2295.33 2291.38 2283.78 2272.58 2258.51 13.0734 2245.43
internal_count=44746 44544 44232 43739 43627 43511 43266 43046 41643 41567 41525 41454 38998 38913 38804 38768 38661 1403 1013 38470 2456 38367 38334 38298 38256 38138 37987 37750 176 37574
is_linear=0
shrinkage=0.05


Tree=5
num_leaves=31
num_cat=0
split_feature=484 676 615 18 332 76 682 29 483 10 425 100 321 226 121 280 143 404 28 654 648 43 29 340 684 497 652 422 473 98
split_gain=454.058 415.717 394.381 317.035 311.447 245.801 214.555 216.878 168.45 112.07 102.83 104.362 94.7639 83.9583 83.0389 79.1115 66.1683 61.2253 55.2821 52.1959 48.3235 47.7608 43.9062 58.8931 42.3252 41.0388 41.1125 41.1217 39.7339 38.978
threshold=0.34314839012035198 0.27843936413325249 0.22168948437600791 1.0000000180025095e-35 0.38441916005754678 0.27257423183700763 0.28618126370117691 0.28300779940694104 1.0000000180025095e-35 0.78562178029717955 0.41919953809156013 0.40936263953455027 1.0000000180025095e-35 0.50970658057438956 0.38504963549269539 0.38971313029412519 1.0000000180025095e-35 0.61096950273110118 0.26702387277040834 0.48757089162432471 0.2400079103084122 0.62903069653455745 0.47867900128566093 0.4558088885754758 0.44473389433514393 0.38876783312045554 0.42420766138893889 0.58142245485887656 0.57645167340918446 0.50263190576082517
decision_type=2 2 2 2 2 2 2 2 2 2 2 2 2 2 2 2 2 2 2 2 2 2 2 2 2 2 2 2 2 2
left_child=1 2 3 4 5 6 7 8 9 10 11 12 13 14 15 16 17 18 19 20 21 24 23 -9 25 26 27 28 29 -1
right_child=-2 -3 -4 -5 -6 -7 -8 22 -10 -11 -12 -13 -14 -15 -16 -17 -18 -19 -20 -21 -22 -23 -24 -25 -26 -27 -28 -29 -30 -31
leaf_value=-0.026053311289689449 0.18907243532783222 0.14319677586519786 0.10995002688149745 0.16489366304498179 0.17629791416345142 0.11783941125045903 0.10912940893379149 0.018519275547399194 0.15166286411289562 0.16771975417836904 0.14437648362931271 0.13290691975850566 0.12240769513129651 0.16815137453550932 0.10663938463117351 0.084739982384715945 -0.050615199737100242 0.21261465982490937 0.11154361606112202 0.097671444370409657 0.017691110728096201 0.24446862560305682 0.10048876214794973 0.18283569798191029 0.084795971692428196 0.057476443106421915 0.066303823402318038 0.13734574399455643 0.24823560123843574 0.12730171632813547
leaf_weight=2068.189015455544 31.214901298284531 48.024626791477203 72.475989378988743 26.192420423030853 22.27271856367588 36.265299253165722 35.352213703095913 64.862923815846443 14.570353806018828 8.0237547010183317 9.5419507324695569 11.097511030733584 11.502705253660677 5.8253462687134734 12.501385435461996 17.059046275913715 203.24479619786143 2.8057690858840934 7.8272614665329447 9.1390093937516195 73.839879348874092 1.662038005888461 35.463855504989624 5.9536160826683036 8.9562376365065557 15.29418934881687 12.330237872898577 3.8805291056632987 1.3241448514163483 4.1517785042524329
leaf_count=35211 202 312 493 124 112 282 333 994 76 42 71 117 107 71 89 187 3502 36 109 103 1076 17 388 32 122 242 153 51 21 71
internal_value=0 -0.00266656 -0.00516693 -0.00822402 -0.0099016 -0.0114487 -0.0132217 -0.0148796 -0.0178502 -0.0188429 -0.0194464 -0.0200791 -0.0207694 -0.0214422 -0.0218944 -0.0225557 -0.0233144 -0.020803 -0.0210998 -0.0215719 -0.0220696 -0.0234573 0.0550757 0.0323335 -0.0236679 -0.0241293 -0.0247266 -0.0252668 -0.0255711 -0.0257461
internal_weight=0 2849.63 2801.61 2729.13 2702.94 2680.66 2644.4 2609.05 2502.77 2488.2 2480.17 2470.63 2459.53 2448.03 2442.21 2429.7 2412.64 2209.4 2206.59 2198.77 2189.63 2115.79 106.28 70.8165 2114.13 2105.17 2089.88 2077.55 2073.66 2072.34
internal_count=44746 44544 44232 43739 43615 43503 43221 42888 41474 41398 41356 41285 41168 41061 40990 40901 40714 37212 37176 37067 36964 35888 1414 1026 35871 35749 35507 35354 35303 35282
is_linear=0
shrinkage=0.05


Tree=6
num_leaves=31
num_cat=0
split_feature=484 676 462 637 76 29 18 483 425 143 18 10 379 654 280 121 630 316 321 29 637 100 27 28 578 425 688 6 367 43
split_gain=366.377 345.099 298.648 314.354 238.973 157.308 143.11 124.553 101.99 88.0063 84.0049 79.4135 77.1161 72.6416 68.3893 67.0293 64.9947 61.6097 61.3057 62.1232 63.8669 61.2197 61.5876 44.2559 43.4597 42.4918 38.7719 38.299 34.4764 34.4051
threshold=0.34314839012035198 0.27843936413325249 1.0000000180025095e-35 0.1455408992087053 1.0000000180025095e-35 0.27249783770263158 0.47283841492729756 1.0000000180025095e-35 0.39613414557442445 1.0000000180025095e-35 1.0000000180025095e-35 0.97931399714617551 0.43487222323311142 0.50871957868645079 0.32632249006680497 0.50598196500062953 0.38868411123381058 0.46061059200243792 1.0000000180025095e-35 0.40722623221456128 0.46578845874428704 1.0000000180025095e-35 0.43853243735728142 0.68831464370803908 0.46322912628888097 0.44294526273209928 0.54699954284191021 0.34341457090329358 0.70611971817761265 0.6513146080153468
decision_type=2 2 2 2 2 2 2 2 2 2 2 2 2 2 2 2 2 2 2 2 2 2 2 2 2 2 2 2 2 2
left_child=1 2 3 4 5 7 9 8 10 12 11 13 14 15 16 23 17 18 19 20 21 22 24 26 25 27 28 -5 29 -1
right_child=-2 -3 -4 6 -6 -7 -8 -9 -10 -11 -12 -13 -14 -15 -16 -17 -18 -19 -20 -21 -22 -23 -24 -25 -26 -27 -28 -29 -30 -31
leaf_value=-0.02958101747023123 0.16062299344768813 0.12465959725147287 0.150198827445608 -0.0023310280501241281 0.11727136522693493 0.051939977518635341 0.14605760903413648 0.1395702902059498 0.1253098950101956 -0.048764149928297092 0.15189159847764655 0.14802957348517562 0.27983103196252507 0.11785886354779487 0.15331449498137825 0.15900967467204624 0.29003786230460799 0.2506953597485978 0.1456186596841548 0.097852792417771076 0.040096865607805308 0.17027557897692536 0.17387042047675261 0.2729042653584397 0.24216838428488555 0.12938538398620972 0.10950622345431077 0.14383163401212198 0.18486917299313138 0.21152448018050693
leaf_weight=1690.1072743907571 34.800976529717445 52.285493642091751 30.655960030853748 603.6562983840704 31.855865068733692 71.283079758286476 21.16319552063942 11.584457680582998 11.223854698240755 51.763044957071543 6.618299037218093 6.4867646396160117 2.8122213929891577 8.5817238166928274 9.1726832911372167 4.7792716622352591 2.1582384556531897 2.7698657177388659 8.8145466744899732 21.016837351024151 149.52790158241987 5.4697197601199141 5.1848295852541915 1.2170025557279576 1.8596504256129254 6.2895407378673545 5.0580834820866576 4.5153511352837077 1.8799498379230488 1.4809121936559666
leaf_count=29591 202 312 179 9237 227 897 94 55 78 853 30 29 27 83 78 33 25 36 57 214 2066 49 56 14 30 43 42 67 30 12
internal_value=0 -0.00260378 -0.00499819 -0.00672932 -0.0184919 -0.0208678 0.0175808 -0.0238351 -0.0249247 0.0144735 -0.0259015 -0.0265858 0.0184496 -0.027247 0.0175537 -0.0279775 0.0160187 0.0152878 0.0144791 0.0130297 0.0107339 0.00373106 0.00226534 -0.0285033 0.000821705 9.12754e-05 -0.0287193 -0.00124585 -0.0291321 -0.0293699
internal_weight=0 2831.27 2778.99 2748.33 1852.16 1820.3 896.174 1749.02 1737.43 875.011 1726.21 1719.59 823.248 1713.1 820.435 1704.52 811.263 809.105 806.335 797.52 776.503 626.975 621.506 1699.74 616.321 614.461 1698.53 608.172 1693.47 1691.59
internal_count=44746 44544 44232 44053 31121 30894 12932 29997 29942 12838 29864 29834 11985 29805 11958 29722 11880 11855 11819 11762 11548 9482 9433 29689 9377 9347 29675 9304 29633 29603
is_linear=0
shrinkage=0.05


Tree=7
num_leaves=31
num_cat=0
split_feature=615 676 484 18 330 29 483 143 379 354 28 10 496 100 226 121 562 309 594 29 27 227 508 6 630 519 684 404 463 436
split_gain=354.349 303.003 247.23 235.714 231.688 197.228 129.895 102.484 109.411 83.957 80.2616 79.0484 75.829 71.5953 67.4518 64.0804 60.4611 54.7209 53.8394 50.8626 47.8954 47.6862 45.4621 43.8065 42.3437 40.6648 39.6254 37.3724 37.1821 35.8428
threshold=0.28489390280280463 0.27843936413325249 0.34314839012035198 1.0000000180025095e-35 1.0000000180025095e-35 0.26377671939208752 1.0000000180025095e-35 1.0000000180025095e-35 0.34654557268052671 1.0000000180025095e-35 0.26702387277040834 0.78562178029717955 0.43834391077550938 0.40936263953455027 0.50970658057438956 0.79534826679390358 0.43608266372845 0.32981798190676948 0.36923824217943646 0.47867900128566093 0.40606804928676293 0.60520357333194463 0.56477954081880199 0.4446595544527121 0.38868411123381058 0.43853914517275017 0.48777239277242118 0.79853195458270709 0.59275661451931894 0.60806630244453996
decision_type=2 2 2 2 2 2 2 2 2 2 2 2 2 2 2 2 2 2 2 2 2 2 2 2 2 2 2 2 2 2
left_child=1 2 3 4 5 6 7 8 9 10 11 13 19 14 15 16 17 18 20 -7 21 22 23 24 25 26 27 28 29 -1
right_child=-2 -3 -4 -5 -6 12 -8 -9 -10 -11 -12 -13 -14 -15 -16 -17 -18 -19 -20 -21 -22 -23 -24 -25 -26 -27 -28 -29 -30 -31
leaf_value=-0.018038987756885283 0.10087320220320761 0.10915115781669821 0.13761882297082081 0.13410046809705739 0.12661837651963331 0.01218061862906164 0.1252831938420737 -0.050048627514353551 0.13403975602787571 -0.044773360348654159 0.12470312920591818 0.13808183705225371 0.15741825416268185 0.11413725424000483 0.15180430100965348 0.2074373026801406 0.11267554636461903 0.15616110602791625 0.096928437744464857 0.080323484347203544 0.092523318819129577 0.21751790988556327 0.14898291266679745 0.10042520172665832 0.11978382010908886 0.089572723731429313 0.097725577212722889 0.24957050646402551 0.18423753674127513 0.23734246836220671
leaf_weight=1954.2044752500951 83.448652222752571 58.22845920920372 29.586381450295448 28.985070377588272 31.004256017506123 82.08545358479023 16.604740232229233 192.6418616399169 12.741629697382448 189.19786942377687 11.003164213150738 8.8893493413925153 14.075315505266188 11.305279329419134 6.2625528424978247 3.305201604962348 9.5403938665986043 4.7418822273612014 10.900793083012102 41.092792451381683 10.401088312268255 2.2016710340976706 4.2019404321908942 8.0946370139718038 5.7142137475311747 8.9906965456902963 7.496956303715705 1.3095611631870259 2.2785585075616828 1.3748910799622525
leaf_count=33298 511 321 161 124 155 1207 78 3532 122 3402 121 42 65 101 68 19 131 73 96 393 125 29 73 130 81 135 90 14 26 23
internal_value=0 -0.003701 -0.00612559 -0.0077121 -0.00926224 -0.0108698 -0.0140945 -0.0150327 -0.0120665 -0.0128897 -0.00997869 -0.0106976 0.0474762 -0.0113421 -0.0120371 -0.0125414 -0.0128993 -0.0134918 -0.0138906 0.0349134 -0.0144927 -0.0150504 -0.0153073 -0.0156543 -0.0161285 -0.0165216 -0.0170066 -0.0174456 -0.0176242 -0.0178594
internal_weight=0 2768.46 2710.23 2680.65 2651.66 2620.66 2483.4 2466.8 2274.16 2261.42 2072.22 2061.21 137.254 2052.32 2041.02 2034.76 2031.45 2021.91 2017.17 123.178 2006.27 1995.87 1993.67 1989.46 1981.37 1975.66 1966.66 1959.17 1957.86 1955.58
internal_count=44746 44235 43914 43753 43629 43474 41809 41731 38199 38077 34675 34554 1665 34512 34411 34343 34324 34193 34120 1600 34024 33899 33870 33797 33667 33586 33451 33361 33347 33321
is_linear=0
shrinkage=0.05


Tree=8
num_leaves=31
num_cat=0
split_feature=615 676 637 332 484 496 483 18 29 143 18 10 379 477 519 425 121 637 484 630 477 29 463 423 379 404 28 422 651 121
split_gain=302.887 260.069 238.319 221.404 192.258 172.936 124.19 106.971 79.7316 73.658 65.4106 61.8351 59.1268 57.5291 54.3879 53.1876 52.5447 48.3936 41.9172 40.0538 37.8676 37.7322 35.8506 35.2334 35.1894 33.0456 32.4196 32.5106 32.2893 31.7841
threshold=0.22168948437600791 0.27843936413325249 0.14631052619197457 0.38441916005754678 0.36950936769652182 0.43834391077550938 1.0000000180025095e-35 0.47283841492729756 0.49062963113570052 1.0000000180025095e-35 1.0000000180025095e-35 0.97931399714617551 0.34654557268052671 0.406267453637912 0.43853914517275017 0.4620279332552803 0.41937904972106999 0.2460808554378289 0.46083949041913663 0.69706380519315603 1.0000000180025095e-35 0.43518702120936664 0.57762644686050824 0.50650753484387712 0.43487222323311142 0.42045611335763816 0.45620644388247861 0.58142245485887656 0.38062351562163105 1.0000000180025095e-35
decision_type=2 2 2 2 2 2 2 2 2 2 2 2 2 2 2 2 2 2 2 2 2 2 2 2 2 2 2 2 2 2
left_child=1 2 3 4 5 6 8 9 10 17 11 12 13 14 15 16 19 18 -4 22 21 24 23 25 28 26 27 -1 29 -19
right_child=-2 -3 7 -5 -6 -7 -8 -9 -10 -11 -12 -13 -14 -15 -16 -17 -18 20 -20 -21 -22 -23 -24 -25 -26 -27 -28 -29 -30 -31
leaf_value=-0.030390063401895973 0.08972782140026303 0.098074303978698471 -0.0017351544612618501 0.13048035939072308 0.13623231577114026 0.13371686026185861 0.12709822754776154 0.12258730948481555 0.068346081735318281 -0.047999831688269178 0.12664073682023011 0.12363774088517943 0.086036195968476267 0.12392321280986414 0.08955397013730225 0.14233031092511456 0.1132759309299578 0.018754731056973364 0.12893535997760097 0.21777531604782596 0.25968570595922896 0.10278609720703265 0.14557521108043794 0.15350191204323516 0.24309129364826465 0.12099036450389931 0.10866156060831561 0.11819014652728076 0.12571089607762076 0.13914578667439623
leaf_weight=1635.174685601145 89.75986073166132 61.474022135138512 308.3091306835413 25.328939437866211 19.878964230418205 18.077360473573208 13.905282497406004 22.702178478240967 23.601133264601231 47.333785276859999 7.158101260662078 6.9849987775087348 11.812962636351584 6.3559754341840735 9.9855955690145475 4.5982591807842246 6.5597287788987151 459.68289010599256 6.2619537860155097 1.6491203308105458 1.72722928225994 15.168713241815565 2.9436306431889525 2.638258345425128 1.8039076328277577 3.6462880149483672 4.2228438369929782 3.6899574585258952 7.364562649279832 5.5484550148248664
leaf_count=29894 525 321 4921 109 99 102 61 94 230 848 30 29 118 66 137 27 44 6592 31 20 18 122 31 39 13 42 43 41 70 29
internal_value=0 -0.00360942 -0.00593827 -0.0163076 -0.018393 -0.0201365 -0.0217304 0.0154682 -0.022926 0.012618 -0.0241876 -0.0248226 -0.025435 -0.0262181 -0.0267878 -0.0274855 -0.0279558 0.0161785 0.000866015 -0.0285159 0.0259828 0.0251583 -0.0287617 -0.0290728 0.0226762 -0.0293654 -0.029699 -0.0300555 0.0218349 0.0201905
internal_weight=0 2745.59 2684.11 1808.21 1782.88 1763 1744.93 875.903 1731.02 853.201 1707.42 1700.26 1693.28 1681.46 1675.11 1665.12 1660.52 805.867 314.571 1653.96 491.296 489.569 1652.32 1649.37 474.4 1646.73 1643.09 1638.86 472.596 465.231
internal_count=44746 44221 43900 31162 31053 30954 30852 12738 30791 12644 30561 30531 30502 30384 30318 30181 30154 11796 4952 30110 6844 6826 30090 30059 6704 30020 29978 29935 6691 6621
is_linear=0
shrinkage=0.05


Tree=9
num_leaves=31
num_cat=0
split_feature=615 682 484 18 332 29 483 76 647 10 425 100 280 339 28 654 291 127 627 380 695 497 477 367 90 43 27 661 440 309
split_gain=260.766 205.346 193.002 187.998 182.28 173.418 118.211 110.672 85.2266 70.5862 67.2927 63.7065 63.276 55.5878 45.7718 40.6838 40.0369 39.2021 39.1278 36.7763 36.4724 36.8661 36.5668 36.6579 36.4063 37.3869 36.7202 34.582 33.399 33.0432
threshold=0.22168948437600791 0.30947109798700423 0.41944861574574049 1.0000000180025095e-35 0.38441916005754678 0.26377671939208752 1.0000000180025095e-35 1.0000000180025095e-35 0.277289702568489 0.78562178029717955 0.39613414557442445 0.40936263953455027 0.36764143225604079 0.29090654787826725 0.26702387277040834 0.40804841597581082 0.69898528610138855 0.67986374404270389 0.71601522919568927 0.54435883693883391 0.46223253826221194 0.38876783312045554 1.0000000180025095e-35 0.66854442591160823 0.41580255025734192 0.62903069653455745 0.43853243735728142 0.26955971958579422 0.59056090665512095 0.54454812008395359
decision_type=2 2 2 2 2 2 2 2 2 2 2 2 2 2 2 2 2 2 2 2 2 2 2 2 2 2 2 2 2 2
left_child=1 2 3 4 5 6 7 8 9 10 11 12 15 -7 27 16 17 18 19 20 21 22 23 24 25 26 28 -10 29 -1
right_child=-2 -3 -4 -5 -6 13 -8 -9 14 -11 -12 -13 -14 -15 -16 -17 -18 -19 -20 -21 -22 -23 -24 -25 -26 -27 -28 -29 -30 -31
leaf_value=-0.024963332504452946 0.081136870987747106 0.10338524630496537 0.11696366538427019 0.11534646296178547 0.12305519404796486 0.031195039422831569 0.11077458883123502 0.069567269130999684 0.012751135474755364 0.11876269088715277 0.10063666785454382 0.089627561100386693 0.071970778574312833 0.1223820459583819 0.21547567387811323 0.060392193363216676 0.25894637841221679 0.25220918242781243 0.2521945025512532 0.23648281308274355 0.068839229111827188 0.054117132013007552 0.07019957850720128 0.1556801309494325 0.13384917745365646 0.19317212451373708 0.074168899244026795 0.25912433972876392 0.10386910818548539 0.13928437021333626
leaf_weight=2064.5991170816123 94.17826396971941 44.215217456221581 31.91808308660984 31.168025895953178 26.193988732993603 128.99010685831308 19.232511982321739 39.280171625316143 176.60389483720064 9.4274444729089719 11.819360755383967 13.416466400027273 18.677075177431107 19.200770806521177 2.8857835233211508 15.447177428752182 1.2760025337338436 1.3101369440555561 1.3061884716153134 1.3800088651478279 11.061537288129328 15.711332105100153 10.525974757969378 2.8592738285660735 3.6709184199571601 1.9844486266374577 9.4907276891171914 1.4358874857425679 5.0620857290923587 3.0666757337748995
leaf_count=37407 525 358 153 127 112 1563 85 267 2424 42 76 114 196 121 20 172 17 24 19 24 200 243 104 44 36 16 111 20 85 41
internal_value=0 -0.00348898 -0.00525287 -0.00672654 -0.00818101 -0.00950841 -0.0126961 -0.0136764 -0.0150485 -0.0177589 -0.0183459 -0.0189907 -0.0196631 0.0430099 0.0179399 -0.0204595 -0.021045 -0.0212126 -0.0213807 -0.0215485 -0.0217158 -0.022189 -0.0227595 -0.0232275 -0.0234726 -0.0237496 -0.0239564 0.0147381 -0.0244057 -0.0247197
internal_weight=0 2723.22 2679 2647.08 2615.92 2589.72 2441.53 2422.3 2383.02 2202.09 2192.66 2180.85 2167.43 148.191 180.926 2148.75 2133.3 2132.03 2130.72 2129.41 2128.03 2116.97 2101.26 2090.73 2087.87 2084.2 2082.22 178.04 2072.73 2067.67
internal_count=44746 44221 43863 43710 43583 43471 41787 41702 41435 38971 38929 38853 38739 1684 2464 38543 38371 38354 38330 38311 38287 38087 37844 37740 37696 37660 37644 2444 37533 37448
is_linear=0
shrinkage=0.05


Tree=10
num_leaves=31
num_cat=0
split_feature=615 676 637 462 76 682 483 29 18 510 18 10 321 562 654 637 100 425 291 682 339 422 29 682 637 651 455 578 226 379
split_gain=226.444 218.472 210.293 171.26 170.688 143.144 97.3385 87.0023 82.8545 81.3501 55.5265 52.5413 47.064 45.9718 43.3666 42.8522 38.5878 37.0924 36.7543 36.2704 35.74 33.0218 33.0132 33.4895 33.8996 31.4341 31.277 30.783 30.771 30.1758
threshold=0.30367995706218048 0.27843936413325249 0.14631052619197457 1.0000000180025095e-35 1.0000000180025095e-35 0.28618126370117691 1.0000000180025095e-35 0.27209315371449672 0.47283841492729756 0.71984846724893992 1.0000000180025095e-35 0.97931399714617551 1.0000000180025095e-35 0.42828740138130506 0.50871957868645079 0.2460808554378289 0.40936263953455027 0.39613414557442445 0.43420169073423415 0.6442389368921283 0.29992678859931837 0.58142245485887656 0.41190964685134396 0.4731417528329353 0.95825568000861272 0.38062351562163105 0.44839361255729432 0.46322912628888097 0.50970658057438956 0.43487222323311142
decision_type=2 2 2 2 2 2 2 2 2 2 2 2 2 2 2 2 2 2 2 2 2 2 2 2 2 2 2 2 2 2
left_child=1 2 3 4 5 6 7 9 12 10 11 14 13 15 16 -4 17 18 21 -7 -9 28 23 24 25 26 27 29 -1 -17
right_child=-2 -3 8 -5 -6 19 -8 20 -10 -11 -12 -13 -14 -15 -16 22 -18 -19 -20 -21 -22 -23 -24 -25 -26 -27 -28 -29 -30 -31
leaf_value=-0.030420216428475724 0.075872346989314943 0.087505859596931135 -0.004560333843645863 0.1054117974423992 0.088229461631990774 0.060262265887105509 0.10860772917862838 0.017049332263998806 0.10721729236843786 0.14583294021024434 0.11023453703900138 0.10778661758238335 0.11893163628258015 0.1401013661506669 0.079857175841217723 0.0066486699983886472 0.067269523821275989 0.092106563021666504 0.1467978805065214 0.19574614045185212 0.12392329055825596 0.12161842866780222 0.084258153617147363 0.17172939231148382 0.05722603004209606 0.10875058994498073 0.23371668846237614 0.22766668722787947 0.087428000643981152 0.19680159236671144
leaf_weight=1513.4637384302914 93.41920879483223 64.648913443088531 329.12250941619277 28.793724901974201 37.320559270679951 23.663141347467903 14.182187184691427 65.982974126935005 23.393515288829803 6.9016717933118334 7.4215009510517111 7.2121641039848319 10.139934882521628 6.7951934188604346 9.3531861081719381 435.55805922299623 10.526994653046129 6.3185734897851935 2.9577022343873969 6.2432132959365836 8.8747428059577924 3.6002179458737364 18.428055055439472 3.4329040050506583 43.377624660730362 8.0663845539093 1.5450521036982525 1.5942673906683911 5.5594065040349951 2.0964174866676322
leaf_count=29190 491 321 5319 143 230 205 59 819 94 39 30 29 58 73 79 6350 87 40 41 44 58 37 143 23 564 71 20 21 55 13
internal_value=0 -0.0033049 -0.00552707 -0.0155267 -0.01754 -0.0198726 -0.0218231 -0.0229454 0.0143734 -0.0254512 -0.0262059 -0.0268554 0.0118483 0.0105709 -0.0274812 0.00952705 -0.0281321 -0.0287877 -0.0292884 0.0885457 0.0297198 -0.0296304 0.0185457 0.0161026 0.0150173 0.0109383 0.00914833 0.00835841 -0.0299889 0.00755953
internal_weight=0 2706.57 2641.93 1758.38 1729.58 1692.26 1662.36 1648.17 883.55 1573.32 1566.41 1558.99 860.156 850.016 1551.78 843.221 1542.43 1531.9 1525.58 29.9064 74.8577 1522.62 514.099 495.671 492.238 448.86 440.794 439.249 1519.02 437.654
internal_count=44746 44255 43934 31185 31042 30812 30563 30504 12749 29627 29588 29558 12655 12597 29529 12524 29450 29363 29323 249 877 29282 7205 7062 7039 6475 6404 6384 29245 6363
is_linear=0
shrinkage=0.05


Tree=11
num_leaves=31
num_cat=0
split_feature=615 637 330 76 484 682 483 29 676 143 676 121 477 688 226 404 654 379 562 321 316 508 637 313 271 695 339 418 578 226
split_gain=197.759 196.365 173.356 165.844 146.107 127.865 103.261 94.6128 78.5341 72.8048 59.6016 42.8985 38.8078 37.3611 35.1442 34.7915 33.7649 33.6709 33.6083 32.4225 32.4205 31.7904 30.7449 31.0979 29.2974 29.228 28.2737 27.6853 27.6394 27.5818
threshold=0.22168948437600791 0.14631052619197457 1.0000000180025095e-35 0.27257423183700763 0.34314839012035198 0.28618126370117691 1.0000000180025095e-35 0.27249783770263158 0.37121899251827445 1.0000000180025095e-35 0.34806379082387601 0.41937904972106999 1.0000000180025095e-35 0.40947623406981853 0.5409334063502419 0.42045611335763816 0.50871957868645079 0.43487222323311142 0.42828740138130506 1.0000000180025095e-35 0.46061059200243792 0.59721655006063568 0.61611698727739128 0.53339433669242264 0.49920820887040945 0.64674529431451833 0.29992678859931837 0.66435153939902658 0.44020155117850596 0.50970658057438956
decision_type=2 2 2 2 2 2 2 2 2 2 2 2 2 2 2 2 2 2 2 2 2 2 2 2 2 2 2 2 2 2
left_child=1 2 3 4 5 6 7 8 11 10 14 12 13 15 17 16 25 18 19 20 21 22 23 24 28 27 -9 29 -3 -1
right_child=-2 9 -4 -5 -6 -7 -8 26 -10 -11 -12 -13 -14 -15 -16 -17 -18 -19 -20 -21 -22 -23 -24 -25 -26 -27 -28 -29 -30 -31
leaf_value=-0.030374510192096516 0.067837764515062682 0.0077466695054054183 0.10350613044524262 0.077018630688425321 0.10911479851278794 0.08044579064072363 0.10491452373642474 0.020001708486556996 0.063512978936223236 -0.045994841076249515 0.10166288456581139 0.098703038002007443 0.088644773370569113 0.076035527432376682 0.24734409928223844 0.1002382794126716 0.066638703001320687 0.15623253350696364 0.12121660005769863 0.10237761935812868 0.18733199298221337 0.24119702191501011 0.04389649315461195 0.16710994990874228 0.20254100650734982 0.15347888110481933 0.11318164488340809 0.22394603980163319 0.15899103204686141 0.077564824404191532
leaf_weight=1469.6410594731569 101.51609946042299 737.74069635570049 31.3734190762043 47.538545273244381 22.419897809624672 31.471257515251637 16.045523196458817 69.477112613618374 24.503070816397667 45.595406644046307 21.184516802430153 6.7868821695446959 7.1844761818647376 8.6067486219108087 1.6491287201642979 5.2346484661102286 9.1925520151853544 4.2771458849310866 7.4634624719619742 10.397982411086558 2.6744172126054755 1.522859215736388 71.330947943031788 3.1180774457752696 1.9477028623223294 2.1795571818947783 9.2215411439537984 1.074552584439515 3.0331398993730536 5.9423127248883238
leaf_count=29101 525 10665 137 265 101 248 66 830 123 850 100 43 70 101 18 45 76 27 72 56 32 21 897 37 32 41 58 17 37 55
internal_value=0 -0.00325808 -0.0129789 -0.0150834 -0.0176757 -0.0193814 -0.0213028 -0.0225537 -0.0252858 0.0155868 0.0188279 -0.0267212 -0.0272853 -0.0278398 0.0167516 -0.0284385 -0.0288912 0.0163007 0.0155876 0.0146397 0.013529 0.0129613 0.0125359 0.00953667 0.00887515 -0.029485 0.0309201 -0.0297551 0.00836595 -0.0299398
internal_weight=0 2679.83 1767.89 1736.52 1688.98 1666.56 1635.09 1619.04 1540.35 911.935 866.34 1515.84 1509.06 1501.87 845.156 1493.26 1488.03 843.506 839.229 831.766 821.368 818.693 817.171 745.84 742.722 1478.84 78.6987 1476.66 740.774 1475.58
internal_count=44746 44221 31377 31240 30975 30874 30626 30560 29672 12844 11994 29549 29506 29436 11894 29335 29290 11876 11849 11777 11721 11689 11668 10771 10734 29214 888 29173 10702 29156
is_linear=0
shrinkage=0.05


Tree=12
num_leaves=31
num_cat=0
split_feature=615 637 76 332 484 676 483 638 29 676 10 637 477 638 455 425 226 519 379 688 484 100 28 291 238 626 100 169 416 440
split_gain=173.643 175.583 146.247 147.84 125.501 102.976 80.2497 73.1171 72.8052 57.8751 47.1525 39.7688 38.4615 34.6153 34.0286 33.5106 32.978 32.6763 34.8561 33.2938 31.8486 31.736 29.5606 28.8579 28.7311 28.1969 28.1222 27.7082 27.5389 27.6211
threshold=0.30367995706218048 0.14631052619197457 1.0000000180025095e-35 0.38441916005754678 0.34314839012035198 0.31903389362665524 1.0000000180025095e-35 0.47786603367820374 0.27249783770263158 0.34806379082387601 0.97931399714617551 0.26888488469403687 1.0000000180025095e-35 1.0000000180025095e-35 0.48240779338548195 0.41919953809156013 0.5409334063502419 0.53935856971831853 0.32831949256865695 0.40947623406981853 0.46083949041913663 0.67355560129307745 0.26702387277040834 0.43420169073423415 0.72002771965565737 0.39938844255972245 0.53498082485542608 0.41519920164742113 0.5214671123836454 0.62118153148565058
decision_type=2 2 2 2 2 2 2 2 2 2 2 2 2 2 2 2 2 2 2 2 2 2 2 2 2 2 2 2 2 2
left_child=1 2 3 4 5 6 8 9 10 11 12 16 13 15 22 17 20 18 19 21 25 23 27 24 28 26 -3 -13 29 -1
right_child=-2 7 -4 -5 -6 -7 -8 -9 -10 -11 -12 14 -14 -15 -16 -17 -18 -19 -20 -21 -22 -23 -24 -25 -26 -27 -28 -29 -30 -31
leaf_value=-0.029550800906297487 0.064115486432879301 -0.0064536566426004853 0.071567831139279489 0.10236421001173542 0.096348590140633517 0.0672485293452489 0.095564920768727746 0.10114170944032885 0.025670832473715446 0.092892507604192223 0.10348199847704598 0.017083690172863202 0.084736177581444763 0.10026993456487912 0.24847596797883587 0.089770856308822339 0.24963666466823101 0.075284724111209761 0.063879686872851837 0.068177622408010383 0.10377850959632395 0.14493707797127664 0.15128592909923003 0.12609649399946335 0.17317541366535116 0.23883224146684656 0.16572201620735219 0.22509202141535331 0.052410648685378564 0.10714446958135085
leaf_weight=1437.2646958827972 99.723183408379555 373.06074628978968 50.32190003246069 26.444892182946205 24.15476767718792 34.313940465450287 14.809654474258421 23.745497718453407 78.223437257111073 21.713474541902542 7.2417916208505622 485.80310038104653 8.0285057947039586 5.4948986470699301 1.6194860637187947 6.2833108454942694 1.2998143061995495 7.9297017566859713 10.594902049750088 9.1049861833453161 6.9041654616594306 2.6562612578272811 4.1811151280999175 3.0300375036895266 1.7661374546587456 1.1859062612056721 2.3867984265089026 1.6062790155410755 10.411831919103859 3.7050353474915019
leaf_count=28971 491 6002 273 109 105 166 60 95 884 99 29 6522 72 22 16 32 11 104 109 101 31 19 29 40 34 14 15 21 210 60
internal_value=0 -0.00308567 -0.0124303 -0.0149293 -0.0167922 -0.0184577 -0.0202883 0.0145388 -0.0213662 0.0122532 -0.0237973 0.0102591 -0.0244092 -0.0249941 0.0196586 -0.0254552 -0.00178736 -0.0259422 -0.0264851 -0.0271374 -0.00263944 -0.0277322 0.0189048 -0.0280472 -0.0283686 -0.00459021 -0.0053591 0.0177692 -0.0286139 -0.0291993
internal_weight=0 2665.29 1741.78 1691.46 1665.01 1640.86 1606.55 923.506 1591.74 899.761 1513.51 878.047 1506.27 1498.24 493.21 1492.75 384.837 1486.46 1478.53 1467.94 383.538 1458.83 491.59 1456.18 1453.15 376.633 375.448 487.409 1451.38 1440.97
internal_count=44746 44255 31400 31127 31018 30913 30747 12855 30687 12760 29803 12661 29774 29702 6588 29680 6073 29648 29544 29435 6062 29334 6572 29315 29275 6031 6017 6543 29241 29031
is_linear=0
shrinkage=0.05


Tree=13
num_leaves=31
num_cat=0
split_feature=143 484 676 462 682 18 29 280 354 483 274 76 100 647 10 6 654 630 27 291 98 307 436 90 339 127 562 627 238 497
split_gain=169.146 146.64 139.994 133.372 127.074 126.016 123.509 85.8759 87.829 61.4872 53.4392 51.9589 54.8788 51.3657 52.1356 51.3461 45.4286 38.8617 37.504 35.6096 35.4138 35.1517 35.1286 34.364 34.0114 33.791 31.0156 30.0259 30.0614 30.0031
threshold=1.0000000180025095e-35 0.34314839012035198 0.27843936413325249 1.0000000180025095e-35 0.41611197692788998 1.0000000180025095e-35 0.26377671939208752 0.3132336353517185 1.0000000180025095e-35 1.0000000180025095e-35 1.0000000180025095e-35 1.0000000180025095e-35 0.40936263953455027 0.329082440945003 0.78562178029717955 0.4446595544527121 0.36360969222485795 0.41784137559522994 1.0000000180025095e-35 0.67800925631036202 0.50263190576082517 0.70053070433345621 0.60806630244453996 0.41580255025734192 0.29090654787826725 0.67986374404270389 0.43608266372845 0.71601522919568927 0.50393657899333866 0.38876783312045554
decision_type=2 2 2 2 2 2 2 2 2 2 2 2 2 2 2 2 2 2 2 2 2 2 2 2 2 2 2 2 2 2
left_child=1 2 3 4 5 6 7 8 9 10 11 12 13 14 15 16 17 18 19 20 21 22 23 25 -8 26 27 28 29 -1
right_child=-2 -3 -4 -5 -6 -7 24 -9 -10 -11 -12 -13 -14 -15 -16 -17 -18 -19 -20 -21 -22 -23 -24 -25 -26 -27 -28 -29 -30 -31
leaf_value=-0.016539925502831215 -0.048140182978495982 0.091428288520008671 0.072278112994192734 0.095941525900490821 0.087612651513672979 0.097324827699406605 0.029013931446105892 0.078499039062100193 -0.04476345596895373 0.086356699375276375 -0.046858984707770605 0.056196043718961655 0.093744761313967376 0.020750848501619869 0.10745366744777074 0.11371320194802539 0.066778657469631172 0.10263962940414238 0.066610785079665599 0.24602434870804968 0.13608075862750463 0.23987126314004259 0.24025929846000449 0.12041944556420033 0.098042229156369357 0.23030051339913846 0.075382181839069556 0.20586435929685215 0.095912442311856916 0.054374594654934084
leaf_weight=1610.9251225814223 175.55111048743129 45.623727768659592 67.024450480937958 35.002174060791731 38.616772077977657 30.402480214834213 132.29404206201434 28.231043040752411 161.35704278573394 17.700106501579285 81.655788794159889 33.468489348888397 13.512586675584314 149.25342915952206 9.4232994318008405 8.2822794653475267 18.528681818395853 7.3673804923892012 14.86747933924198 1.3241923376917828 3.9546577967703334 1.3653686903417099 1.358068462461232 4.7310596480965605 20.627083159983158 1.4081301689147938 9.4919534064829332 1.5337237268686283 6.0354131609201422 15.054799571633337
leaf_count=29735 3653 200 307 176 246 122 1466 261 3367 75 1601 210 100 1854 40 124 198 81 156 14 66 26 20 41 116 22 115 19 114 221
internal_value=0 0.00258751 0.000982135 -0.000962135 -0.00236212 -0.00381946 -0.00512591 -0.00814502 -0.00927088 -0.0064234 -0.00724717 -0.00555537 -0.00665561 -0.00738309 -0.00983061 -0.0104784 -0.0110841 -0.0119432 -0.0124481 -0.0131573 -0.0133646 -0.0137224 -0.0139322 -0.0141415 0.038325 -0.0145286 -0.0147384 -0.0152621 -0.0154699 -0.0158833
internal_weight=0 2570.42 2524.8 2457.77 2422.77 2384.15 2353.75 2200.83 2172.6 2011.24 1993.54 1911.89 1878.42 1864.91 1715.65 1706.23 1697.95 1679.42 1672.05 1657.18 1655.86 1651.9 1650.54 1649.18 152.921 1644.45 1643.04 1633.55 1632.02 1625.98
internal_count=44746 41093 40893 40586 40410 40164 40042 38460 38199 34832 34757 33156 32946 32846 30992 30952 30828 30630 30549 30393 30379 30313 30287 30267 1582 30226 30204 30089 30070 29956
is_linear=0
shrinkage=0.05


Tree=14
num_leaves=31
num_cat=0
split_feature=143 637 462 76 615 682 484 676 29 483 676 10 280 615 684 280 259 606 688 100 321 307 416 440 6 43 339 654 562 637
split_gain=159.26 139.031 138.823 122.402 114.688 104.6 96.479 83.3285 68.6833 50.7818 40.8444 38.8078 36.2878 33.9663 31.0924 30.5109 29.7217 29.0893 28.9232 27.0932 26.7694 26.9453 26.0561 25.1027 25.1693 25.1857 24.5104 24.3289 24.162 23.9692
threshold=1.0000000180025095e-35 0.14631052619197457 1.0000000180025095e-35 0.27257423183700763 0.42820878808189955 0.28618126370117691 0.36950936769652182 0.32327193930265358 0.27249783770263158 1.0000000180025095e-35 0.39633689876346062 0.97931399714617551 0.33885142555173003 0.49466994987316476 0.44473389433514393 0.82340292105619295 0.62100722381503848 1.0000000180025095e-35 0.40947623406981853 0.40936263953455027 1.0000000180025095e-35 0.5888439916322884 0.5214671123836454 0.62118153148565058 0.46913286575699625 0.6513146080153468 0.30594788594977745 0.77261608902851819 0.42828740138130506 0.95825568000861272
decision_type=2 2 2 2 2 2 2 2 2 2 2 2 2 2 2 2 2 2 2 2 2 2 2 2 2 2 2 2 2 2
left_child=1 2 3 4 5 6 7 8 9 11 13 12 16 14 15 17 18 20 19 22 21 28 23 24 25 27 -10 -1 29 -3
right_child=-2 10 -4 -5 -6 -7 -8 -9 26 -11 -12 -13 -14 -15 -16 -17 -18 -19 -20 -21 -22 -23 -24 -25 -26 -27 -28 -29 -30 -31
leaf_value=-0.027429538317703613 -0.047779012113152004 0.011056062789605562 0.092785297445041964 0.067475754271352537 0.075635038211385577 0.073325487705888079 0.086397841353555799 0.058098344556060159 0.017250604126553406 0.075459668844133451 0.084982612427624268 0.093311122169628363 0.051823407105466172 0.084562676058766176 0.13338390074850023 0.24147513243898971 0.16597224829061821 -0.03753909580744047 0.062989006052758131 0.058782343574157528 0.092314895094518457 0.23477384963876582 0.053932323842938029 0.10192468098631123 0.085430124986174694 0.15951598501963327 0.10755517893312559 0.20327115097024406 0.098245486123047968 0.047750264019030556
leaf_weight=1255.6961873807013 168.22004591673613 787.92715851590037 34.558258727192879 51.296690672636032 37.250140488147736 34.155006650835276 23.009068176150322 36.210380017757416 68.883741073310375 13.40468694269657 22.13237227499485 7.2127457559108725 16.012949623167515 17.831423968076706 5.4996786043047896 1.4733207970857609 2.0576258823275557 26.806062910705805 9.4405798129737359 9.6119542866945249 11.152314916253088 1.3840588554739941 10.247113350778816 3.8161818608641616 5.0020135492086402 1.8082762956619252 8.4339883998036367 1.1438279449939717 8.4216959998011571 47.16822937130928
leaf_count=26138 3653 10863 164 262 177 239 96 166 776 54 96 29 165 84 58 9 43 390 98 74 57 20 198 57 82 12 43 9 70 564
internal_value=0 0.0024448 -0.00635935 -0.00850789 -0.0110333 -0.0131768 -0.0151839 -0.016797 -0.0187166 -0.0213693 0.017872 -0.0223511 -0.0229856 0.0162356 0.0148664 0.0141293 -0.0239079 0.0137499 -0.0242092 -0.0248486 0.015356 0.0143401 -0.0254778 -0.0261198 -0.0265065 -0.0269513 0.0271012 -0.0272196 0.0139784 0.0131286
internal_weight=0 2559.05 1629.25 1594.69 1543.4 1506.15 1471.99 1448.98 1412.77 1335.45 929.796 1322.05 1314.84 907.664 889.833 884.333 1298.82 882.86 1296.77 1287.33 856.053 844.901 1277.71 1267.47 1263.65 1258.65 77.3177 1256.84 843.517 835.095
internal_count=44746 41093 28882 28718 28456 28279 28040 27944 27778 26959 12211 26905 26876 12115 12031 11973 26711 11964 26668 26570 11574 11517 26496 26298 26241 26159 819 26147 11497 11427
is_linear=0
shrinkage=0.05


Tree=15
num_leaves=31
num_cat=0
split_feature=143 354 682 484 676 462 18 615 76 483 425 98 121 274 321 404 10 86 626 28 684 497 226 496 654 562 508 313 307 647
split_gain=149.973 130.821 118.943 106.832 104.079 105.496 107.944 109.122 74.9705 60.8136 58.6404 51.619 49.687 47.3315 49.2352 44.4662 42.9131 42.6273 42.651 42.7838 42.2603 42.9729 43.1403 43.0271 35.3816 35.7129 31.4582 29.9124 29.4424 30.0624
threshold=1.0000000180025095e-35 1.0000000180025095e-35 0.28618126370117691 0.41944861574574049 0.27843936413325249 1.0000000180025095e-35 1.0000000180025095e-35 0.39506823545736708 1.0000000180025095e-35 1.0000000180025095e-35 1.0000000180025095e-35 0.54598954893908991 0.38504963549269539 1.0000000180025095e-35 1.0000000180025095e-35 0.42045611335763816 0.78562178029717955 0.61983121621536597 0.74603184152334745 0.26702387277040834 0.44473389433514393 0.43591880674334232 0.50970658057438956 0.47366489227710817 0.48757089162432471 0.44385077500263337 0.56477954081880199 0.64674339186502749 0.60393781356793175 0.277289702568489
decision_type=2 2 2 2 2 2 2 2 2 2 2 2 2 2 2 2 2 2 2 2 2 2 2 2 2 2 2 2 2 2
left_child=1 2 3 4 5 6 7 8 9 10 11 12 13 14 15 16 17 18 19 20 21 22 23 24 25 26 27 28 29 -1
right_child=-2 -3 -4 -5 -6 -7 -8 -9 -10 -11 -12 -13 -14 -15 -16 -17 -18 -19 -20 -21 -22 -23 -24 -25 -26 -27 -28 -29 -30 -31
leaf_value=-0.016224307398066504 -0.047415415679113573 -0.040379122308919019 0.079095537695716478 0.0845565161814507 0.064517556420640651 0.086342672126762457 0.092849010406869811 0.059168650084297503 0.058537187768580183 0.080441334904132661 0.078899085266935856 0.16464969923653289 0.077368718441075512 -0.046358014940170202 0.086265807050068255 0.13386670339415857 0.098199830634647947 0.17967995156397568 0.29921599642633534 0.085982265841273414 0.090341392467818749 0.076508624743433409 0.10493359087586158 0.086666140055020685 0.073052304220190975 0.07410283623973761 0.11024510110476585 0.15662664653551384 0.15210404846655717 0.0059146491208600382
leaf_weight=1607.6276474744081 161.21216167137027 167.64714282378554 53.40436102449894 40.073953092098236 65.109283655881882 35.128303550183773 30.21690745651722 69.833890795707703 46.311074659228325 20.239860981702805 19.829428255558014 4.3445753008127204 16.946041896939278 79.713458616286516 14.036947540938852 5.5287096835672846 9.4394676536321622 2.9989417865872374 1.121903359889983 11.740573514252899 10.482669934630392 14.135462448000906 7.9883534386754027 11.091206446290014 12.112979695200918 11.774828799068926 5.1409978158771983 2.5764430984854689 2.6681841760873786 169.50538433343172
leaf_count=30469 3653 3506 332 169 286 176 122 328 256 85 126 65 99 1645 104 63 40 52 14 118 117 204 70 76 99 127 75 36 42 2192
internal_value=0 0.00231193 0.00531767 0.003625 0.00220728 0.000381893 -0.000998581 -0.00231315 -0.00437007 -0.00579743 -0.00666117 -0.00750907 -0.00788368 -0.00861343 -0.00702986 -0.00772425 -0.00814056 -0.00867707 -0.00897947 -0.00916468 -0.00976685 -0.0103357 -0.0110064 -0.0115146 -0.0121157 -0.0126891 -0.0132608 -0.013617 -0.0138635 -0.0141127
internal_weight=0 2548.77 2381.12 2327.72 2287.64 2222.53 2187.41 2157.19 2087.36 2041.04 2020.8 2000.97 1996.63 1979.68 1899.97 1885.93 1880.41 1870.97 1867.97 1866.84 1855.1 1844.62 1830.49 1822.5 1811.41 1799.29 1787.52 1782.38 1779.8 1777.13
internal_count=44746 41093 37587 37255 37086 36800 36624 36502 36174 35918 35833 35707 35642 35543 33898 33794 33731 33691 33639 33625 33507 33390 33186 33116 33040 32941 32814 32739 32703 32661
is_linear=0
shrinkage=0.05


Tree=16
num_leaves=31
num_cat=0
split_feature=143 354 682 637 484 330 29 615 483 76 18 280 18 70 606 121 10 695 339 28 630 316 29 517 422 226 100 512 637 578
split_gain=141.217 121.778 102.409 105.648 92.3646 93.3723 95.7223 81.1118 52.3426 50.1536 47.1481 40.034 38.1216 32.9528 32.5606 31.4275 31.347 27.873 27.5721 26.4896 26.354 26.4052 26.7917 26.083 25.6503 24.8436 24.5495 24.4956 24.2774 25.005
threshold=1.0000000180025095e-35 1.0000000180025095e-35 0.28618126370117691 0.14331212510700755 0.36950936769652182 1.0000000180025095e-35 0.26438098969539198 0.22168948437600791 1.0000000180025095e-35 0.27257423183700763 0.47283841492729756 0.33885142555173003 1.0000000180025095e-35 0.18552787101429019 1.0000000180025095e-35 0.50598196500062953 0.97931399714617551 0.51911701079208261 0.29090654787826725 0.68831464370803908 0.38868411123381058 0.46061059200243792 0.40722623221456128 0.51800655084955227 0.58142245485887656 0.50758094519935171 1.0000000180025095e-35 1.0000000180025095e-35 0.44111231735439749 0.44020155117850596
decision_type=2 2 2 2 2 2 2 2 2 2 2 2 2 2 2 2 2 2 2 2 2 2 2 2 2 2 2 2 2 2
left_child=1 2 3 4 5 6 7 8 9 12 13 23 15 14 20 16 17 19 -8 24 21 22 26 -3 25 -1 27 28 29 -5
right_child=-2 11 -4 10 -6 -7 18 -9 -10 -11 -12 -13 -14 -15 -16 -17 -18 -19 -20 -21 -22 -23 -24 -25 -26 -27 -28 -29 -30 -31
leaf_value=-0.021781115196547633 -0.047048759296513532 -0.044663824534890956 0.072118787752611255 0.0098865519419927151 0.084032044337824491 0.078395261295872723 0.026980640495276955 0.049581371244617568 0.078328400624743971 0.043887926924022783 0.087766320140105297 0.14474869640200283 0.093342125229385259 -0.054673937009949929 -0.040893904477097426 0.10322248276060247 0.085762452206852913 0.10532102340615256 0.096909739869867229 0.1800755717254775 0.14680770005734833 0.14355917062296084 0.06432082550350339 0.22514878440924485 0.10893434124391672 0.074925665820335344 0.094090964542108205 -0.034680006626604698 0.031446788964914554 0.15166878351566704
leaf_weight=1122.8690276816487 154.51487394422293 158.01554308459163 55.582329377532005 582.92907904461026 28.471468135714531 31.323708474636078 75.870238941162825 50.428761228919029 14.794583484530447 33.635522618889809 22.796984657645226 2.8867672085762015 7.6306530684232703 16.679415110498667 24.206999111920595 5.2540573179721823 7.0501913279294959 4.420075722038745 17.312407188117504 1.6440197825431813 3.947688788175582 4.1216434165835372 28.515246473252773 0.90082914754748245 3.7987947389483443 6.6806190013885489 9.6943399831652624 24.988446615636349 184.34469858556986 3.1264166980981818
leaf_count=23559 3653 3462 332 8088 116 141 796 239 60 175 93 23 31 270 375 28 29 83 80 12 30 36 213 21 35 54 57 384 2237 34
internal_value=0 0.00218713 0.00504988 0.00344065 -0.00511194 -0.0069475 -0.00892565 -0.0125471 -0.0151411 -0.0163003 0.0167717 -0.0397823 -0.0180465 0.0149379 0.0162788 -0.0187845 -0.0193436 -0.019994 0.0399728 -0.020482 0.0179231 0.0173158 0.0166916 -0.0431344 -0.0207729 -0.0212092 0.0150046 0.0140407 0.015621 0.0106429
internal_weight=0 2533.92 2372.12 2316.54 1411.18 1382.71 1351.39 1258.21 1207.78 1192.98 905.351 161.803 1159.35 882.554 865.875 1151.72 1146.46 1139.41 93.1826 1134.99 841.668 837.72 833.598 158.916 1133.35 1129.55 805.083 795.389 770.4 586.055
internal_count=44746 41093 37587 37255 25438 25322 25181 24305 24066 24006 11817 3506 23831 11724 11454 23800 23772 23743 876 23660 11079 11049 11013 3483 23648 23613 10800 10743 10359 8122
is_linear=0
shrinkage=0.05


Tree=17
num_leaves=31
num_cat=0
split_feature=143 637 462 76 484 682 29 676 18 477 425 280 483 676 18 280 10 121 328 654 70 425 637 473 477 455 226 259 688 226
split_gain=132.985 109.195 107.647 89.0646 81.8918 73.0315 72.0894 60.5082 43.9935 39.7309 39.9926 35.7165 33.5766 33.0054 32.234 31.2797 30.5752 30.2995 29.7395 29.1905 27.6563 26.5576 26.8428 29.9196 27.6312 26.9461 25.6684 25.2983 24.8782 24.7795
threshold=1.0000000180025095e-35 0.14631052619197457 1.0000000180025095e-35 0.27257423183700763 0.34314839012035198 0.49081815352493069 0.27249783770263158 0.27843936413325249 0.47283841492729756 1.0000000180025095e-35 1.0000000180025095e-35 0.33885142555173003 1.0000000180025095e-35 0.39633689876346062 1.0000000180025095e-35 0.32632249006680497 0.97931399714617551 0.50598196500062953 0.51673610442201034 0.36360969222485795 0.18552787101429019 1.0000000180025095e-35 0.27771739360184017 0.50725904491005813 1.0000000180025095e-35 0.44839361255729432 0.5409334063502419 0.62100722381503848 0.54699954284191021 0.50970658057438956
decision_type=2 2 2 2 2 2 2 2 2 2 2 2 2 2 2 2 2 2 2 2 2 2 2 2 2 2 2 2 2 2
left_child=1 2 3 4 5 6 7 9 13 10 11 12 14 15 16 18 17 19 20 27 21 22 23 26 25 -24 -3 28 29 -1
right_child=-2 8 -4 -5 -6 -7 -8 -9 -10 -11 -12 -13 -14 -15 -16 -17 -18 -19 -20 -21 -22 -23 24 -25 -26 -27 -28 -29 -30 -31
leaf_value=-0.025269692304415076 -0.046678447438596671 -0.0009130597110355318 0.082073007315623447 0.054954525503860853 0.073646092476286271 0.079723079202645167 0.03057793023522435 0.049463273523150546 0.084593272513756104 0.088840948855264085 0.060739852941585265 0.050783550423834839 0.063073728289862685 0.073351350010265368 0.090872960479323889 0.091637415422359314 0.082823219869988141 0.086236218982188306 0.15881192095505242 0.041183607916041837 -0.054471530764678339 0.087117254163216751 0.016988576502145369 0.23904486152198023 0.19842864854069631 0.1756976928815154 0.17463377862360202 0.14119473551192849 0.076557993927206802 0.069186971104873998
leaf_weight=1206.9937758743763 148.11590470001101 375.95036770030856 33.943954691290855 54.297472432255745 28.533656939864159 21.436393514275551 88.061401560902596 34.280029430985451 22.477423533797264 8.6721513047814351 15.717390596866606 17.825073927640915 11.909194722771643 22.695208206772804 6.3745564222335807 12.255303777754305 6.9381701797246924 6.381934940814971 3.399577807635068 17.470532424747944 16.012427173554897 11.561290211975573 475.36651421710849 1.3141939006745804 2.1285682320594779 2.6895679682493201 2.093940556049346 2.315814394503831 6.0932464078068724 6.983492210507392
leaf_count=26440 3653 5611 164 262 116 113 863 152 93 67 88 171 49 95 26 78 29 32 40 171 269 67 5895 12 17 21 13 43 42 54
internal_value=0 0.00207018 -0.00600293 -0.0079439 -0.0102422 -0.0118845 -0.013252 -0.0161154 0.015477 -0.0178267 -0.0185355 -0.0195019 -0.0204873 0.0137983 -0.0212774 0.0123012 -0.0218479 -0.0224306 0.0112094 -0.0229899 0.0106437 0.0118407 0.0108282 0.000887179 0.0186818 0.0178815 5.92725e-05 -0.0239071 -0.0242205 -0.0247263
internal_weight=0 2522.17 1574.23 1540.28 1485.99 1457.45 1436.02 1347.96 947.944 1313.68 1305 1289.29 1271.46 925.467 1259.55 902.772 1253.18 1246.24 890.516 1239.86 887.117 871.104 859.543 379.359 480.185 478.056 378.044 1222.39 1220.07 1213.98
internal_count=44746 41093 28882 28718 28456 28340 28227 27364 12211 27212 27145 27057 26886 12118 26837 12023 26811 26782 11945 26750 11905 11636 11569 5636 5933 5916 5624 26579 26536 26494
is_linear=0
shrinkage=0.05


Tree=18
num_leaves=31
num_cat=0
split_feature=354 676 615 462 637 496 484 18 29 76 483 280 379 18 630 379 238 637 10 121 280 171 376 330 561 28 463 517 688 487
split_gain=109.429 95.2285 94.812 93.2178 107.07 83.5792 61.6225 47.1669 45.3283 39.8006 38.0342 33.1954 31.723 32.0082 30.8446 30.2924 29.663 28.0365 27.6896 26.9252 26.5504 26.4243 26.196 25.7781 25.7687 25.4933 25.5337 25.4756 25.2928 24.6948
threshold=1.0000000180025095e-35 0.27843936413325249 0.39506823545736708 1.0000000180025095e-35 0.14631052619197457 0.43834391077550938 0.36950936769652182 0.47283841492729756 0.49062963113570052 1.0000000180025095e-35 1.0000000180025095e-35 0.33885142555173003 0.32831949256865695 1.0000000180025095e-35 0.69706380519315603 0.43487222323311142 0.45218316120681035 0.44111231735439749 0.97931399714617551 0.41937904972106999 0.41004628232778623 0.47042385073506304 0.39690228406874151 0.44823063256099877 0.6600016192323569 0.45989803784848665 0.42152669767981293 0.52322425182672194 0.40554317995150752 0.51195782217239982
decision_type=2 2 2 2 2 2 2 2 2 2 2 2 2 2 2 2 2 2 2 2 2 2 2 2 2 2 2 2 2 2
left_child=1 2 3 4 5 6 8 15 9 10 12 27 13 14 16 17 18 20 19 23 21 22 24 25 29 26 28 -2 -1 -6
right_child=11 -3 -4 -5 7 -7 -8 -9 -10 -11 -12 -13 -14 -15 -16 -17 -18 -19 -20 -21 -22 -23 -24 -25 -26 -27 -28 -29 -30 -31
leaf_value=-0.02336358339528552 -0.044712979982232455 0.057844023668630576 0.054089952167258787 0.079047722189735103 -4.3050797795250899e-05 0.090553977826924953 0.065773357712297156 0.082406066461090388 0.047873215073016236 0.036964813279218162 0.065757753373181169 0.11779229584465503 0.063334748043293546 0.086207007407372971 0.18297536652150731 0.13792629206865206 0.066713914707000749 0.024154048821674969 0.080214225825006216 0.068586557224062927 0.091874421651236104 0.17885319571718147 0.17582663728558329 0.1540904689780267 0.22852073135764589 0.09825035608325712 0.089985007712988369 0.21941768928520569 0.05480720872657964 0.19659636508801376
leaf_weight=1208.8479787185788 160.99612596258521 74.052446454763412 79.174946025013924 35.335371926426888 648.15769859403372 19.8011145144701 24.445087939500809 22.347193583846092 28.671266779303551 34.966385588049889 13.703704625368117 3.2658632695674887 11.88074057176709 7.2224989384412757 1.8808486685156811 4.5217810645699492 9.8628674261271936 208.85077986493707 6.8088956624269477 8.3506531491875631 8.3258177787065488 2.1058341301977626 2.1467091888189307 2.0866740047931662 1.2407656759023655 4.4065084792673579 5.0484594032168379 0.91811355948448081 10.437144558876751 1.6005718633532513
leaf_count=26501 3756 315 357 182 9491 103 99 94 224 183 57 23 112 30 20 25 180 2511 29 46 55 24 28 14 20 39 75 18 107 28
internal_value=0 0.00199472 0.000280213 -0.00154589 -0.00278529 -0.0114407 -0.0129057 0.010674 -0.014326 -0.0156714 -0.0170975 -0.0400319 -0.0179867 -0.0187505 -0.0193533 0.00884609 -0.0196563 0.00817707 -0.02034 -0.0208925 0.00314857 0.00202119 0.00145106 -0.0214996 0.000876044 -0.0217977 -0.0222298 -0.0432153 -0.0226944 0.000441338
internal_weight=0 2486.28 2412.23 2333.05 2297.72 1398.42 1378.62 899.297 1354.17 1325.5 1290.54 165.18 1276.83 1264.95 1257.73 876.95 1255.85 872.428 1245.99 1239.18 663.577 655.252 653.146 1230.83 650.999 1228.74 1224.33 161.914 1219.29 649.758
internal_count=44746 40949 40634 40277 40095 27819 27716 12276 27617 27393 27210 3797 27153 27041 27011 12182 26991 12157 26811 26782 9646 9591 9567 26736 9539 26722 26683 3774 26608 9519
is_linear=0
shrinkage=0.05


Tree=19
num_leaves=31
num_cat=0
split_feature=143 354 682 637 615 330 496 484 676 483 437 29 280 70 342 238 477 425 22 121 10 367 379 630 695 676 463 669 608 90
split_gain=123.069 103.482 82.0544 76.2999 71.3581 78.1989 72.0151 64.6513 56.2371 43.1141 41.2936 36.0206 29.2995 29.0483 28.9663 28.8787 28.3842 28.0063 27.7183 26.2861 25.6969 25.7559 25.521 25.6506 25.6428 25.5086 24.5942 24.5059 23.6274 23.3805
threshold=1.0000000180025095e-35 1.0000000180025095e-35 0.28618126370117691 0.14331212510700755 0.22168948437600791 1.0000000180025095e-35 0.43834391077550938 0.36950936769652182 0.27843936413325249 1.0000000180025095e-35 0.49490564951496979 0.49062963113570052 0.33885142555173003 0.18552787101429019 0.45145967049682628 0.45218316120681035 0.406267453637912 0.41919953809156013 0.33012338599197483 0.50598196500062953 0.97931399714617551 0.70611971817761265 0.54764845782488825 0.69706380519315603 0.51911701079208261 0.39633689876346062 0.42152669767981293 1.0000000180025095e-35 1.0000000180025095e-35 0.43764994374815219
decision_type=2 2 2 2 2 2 2 2 2 2 2 2 2 2 2 2 2 2 2 2 2 2 2 2 2 2 2 2 2 2
left_child=1 2 3 4 5 6 7 8 9 10 11 15 14 25 -3 16 17 18 19 20 21 22 23 24 26 27 29 28 -5 -1
right_child=-2 12 -4 13 -6 -7 -8 -9 -10 -11 -12 -13 -14 -15 -16 -17 -18 -19 -20 -21 -22 -23 -24 -25 -26 -27 -28 -29 -30 -31
leaf_value=-0.023184341666702302 -0.046224706619325054 -0.043635034677727835 0.063145950933233497 0.015954492164938123 0.047354612908169343 0.074095113216103195 0.086445816205727333 0.073392281466425971 0.044207147321929888 0.072229109698472321 0.17505000297589288 0.041129185605711403 0.10487523060704258 -0.054323066574140003 0.25646510748156698 0.06686684731995475 0.080043209137133503 0.09196327314166354 0.094579467235295922 0.084694881841477748 0.077885276291660227 0.15177251745099274 0.10065843448141405 0.15065280367920497 0.094268938987183859 0.068814913715020506 0.087439968845381411 -0.050755604835540515 -0.054050138758824931 0.11099656429803109
leaf_weight=1072.7618667520583 140.01868625730276 144.23469015210867 58.192858785390854 864.15020876005292 63.184614300727844 29.016008824110031 19.489824082702398 22.594645664095879 42.994773298501968 14.31735187768936 2.8491485118865958 27.387418270111084 3.4787268638610831 15.267838295549153 0.8085898868739595 10.196730289608238 7.3850608840584746 5.7289410233497611 5.3578930683434001 6.0292793065309516 6.665491670370101 2.1631626188755027 4.2988707646727553 2.1617638468742362 4.7417690306901923 21.672882780432701 5.0852539017796508 14.411831509321926 12.223720360547302 3.2563379555940619
leaf_count=23655 3653 3465 332 11038 288 135 101 91 183 60 59 211 23 270 18 170 56 27 84 29 29 30 32 20 83 89 66 228 192 29
internal_value=0 0.00195017 0.0045151 0.00302218 -0.00452987 -0.00706239 -0.00892326 -0.010415 -0.0119629 -0.0140088 -0.0150677 -0.0155334 -0.0385228 0.0140741 -0.041962 -0.0168996 -0.0176584 -0.0183037 -0.0188715 -0.0194205 -0.0199906 -0.0205867 -0.020928 -0.0214084 -0.021751 0.0152186 -0.0222598 0.0139146 0.0149781 -0.0227783
internal_weight=0 2492.11 2343.59 2285.39 1357.67 1294.48 1265.47 1245.98 1223.38 1180.39 1166.07 1163.22 148.522 927.726 145.043 1135.83 1125.64 1118.25 1112.52 1107.16 1101.13 1094.47 1092.31 1088.01 1085.85 912.459 1081.1 890.786 876.374 1076.02
internal_count=44746 41093 37587 37255 25438 25150 25015 24914 24823 24640 24580 24521 3506 11817 3483 24310 24140 24084 24057 23973 23944 23915 23885 23853 23833 11547 23750 11458 11230 23684
is_linear=0
shrinkage=0.05


Tree=20
num_leaves=31
num_cat=0
split_feature=143 354 274 615 462 682 637 76 18 676 29 100 27 510 416 6 226 684 654 280 562 342 372 291 10 440 477 29 307 489
split_gain=115.869 96.4561 73.3944 67.2101 69.6086 70.3005 75.155 67.6 64.6254 47.8811 43.9518 39.4295 32.9949 32.8989 28.4967 28.277 28.601 27.3175 27.1538 26.3615 26.3013 24.9199 24.6363 24.1529 23.9563 23.807 23.7544 23.4652 23.8218 23.5462
threshold=1.0000000180025095e-35 1.0000000180025095e-35 1.0000000180025095e-35 0.39506823545736708 1.0000000180025095e-35 0.28618126370117691 0.19941746196145263 0.27257423183700763 1.0000000180025095e-35 0.32327193930265358 0.27209315371449672 0.40936263953455027 1.0000000180025095e-35 0.71984846724893992 0.27275658736511116 0.25947327394428976 0.50970658057438956 0.44473389433514393 0.36360969222485795 0.33885142555173003 0.47829642890917007 0.46420775757297422 0.60718829532240692 0.47763924717008993 0.35940450107196503 0.62118153148565058 1.0000000180025095e-35 0.40722623221456128 0.36564457245373899 0.33660628711911161
decision_type=2 2 2 2 2 2 2 2 2 2 2 2 2 2 2 2 2 2 2 2 2 2 2 2 2 2 2 2 2 2
left_child=1 2 3 4 5 6 7 8 9 10 11 12 13 15 -4 16 17 18 20 21 22 -3 24 26 25 -1 27 28 29 -8
right_child=-2 19 14 -5 -6 -7 23 -9 -10 -11 -12 -13 -14 -15 -16 -17 -18 -19 -20 -21 -22 -23 -24 -25 -26 -27 -28 -29 -30 -31
leaf_value=-0.019847240837801514 -0.045843086348991847 -0.043154152891519443 -0.050303344964083452 0.050956385721497924 0.075009812760425107 0.058035437166671693 0.011005306405069767 0.050121418536673401 0.080324516755826414 0.043585440048574828 0.023613282220542611 0.076532103595646522 0.068124685029746945 0.087867367356211201 0.10805609186105963 0.065913647141916804 0.078754850372189947 0.08049679739941823 0.043438542571204851 0.094358385370692632 0.10945609856138923 0.21773584965544135 0.25756763837770552 0.17808756096001088 0.063651840902514592 0.10847490072858131 0.13317724750305701 0.059634805497825599 0.17982104130710755 0.17670949782766546
leaf_weight=1111.1779882498085 134.27086834236979 138.80362969264388 72.798027280718088 79.87627449631691 34.220016598701477 56.762819670140743 641.26910912618041 53.634701952338219 20.809932187199593 42.760298669338226 89.505942959338427 12.253357738256453 12.217984635382889 7.8020428754389277 2.9562024995684615 10.660747889429329 7.9277080595493308 7.2073891125619403 18.19815357029438 3.6678694784641257 4.0250559337437144 0.92139290645718475 0.80705910921096702 2.2712166905403128 8.7446506023406965 3.6262398324906817 4.2088543549180022 27.061205610632896 2.1104090213775626 2.1510418467223635
leaf_count=24304 3653 3467 1619 350 178 318 8077 256 89 181 936 84 134 37 43 176 59 82 176 23 53 16 20 17 74 51 30 194 21 28
internal_value=0 0.00184495 0.00428726 0.00590905 0.00425956 0.00313201 0.00164118 -0.00493495 -0.00710986 -0.00847083 -0.0101908 -0.0127025 -0.0136195 -0.0144658 -0.0441236 -0.0151468 -0.0158906 -0.016541 -0.0171509 -0.0379603 -0.0181281 -0.0414338 -0.0185848 0.0153088 -0.0187832 -0.0194298 0.0147625 0.0140215 0.0121094 0.0115593
internal_weight=0 2480.44 2337.04 2261.29 2181.41 2147.19 2090.43 1411.36 1357.72 1336.91 1294.15 1204.65 1192.4 1180.18 75.7542 1172.37 1161.71 1153.79 1146.58 143.393 1128.38 139.725 1124.36 679.072 1123.55 1114.8 676.801 672.592 645.531 643.42
internal_count=44746 41093 37587 35925 35575 35397 35079 26712 26456 26367 26186 25250 25166 25032 1662 24995 24819 24760 24678 3506 24502 3483 24449 8367 24429 24355 8350 8320 8126 8105
is_linear=0
shrinkage=0.05


Tree=21
num_leaves=31
num_cat=0
split_feature=143 354 484 18 676 637 332 615 682 340 169 379 98 100 425 497 695 626 28 259 43 86 627 76 27 121 326 280 404 684
split_gain=109.075 89.893 69.2364 66.0298 64.8686 68.1111 71.8345 71.9458 61.1511 61.4795 58.4618 41.6343 38.584 35.5371 40.2621 32.9863 30.4293 30.1938 30.2454 27.9482 26.7894 26.5483 26.472 25.9848 26.0415 25.5671 25.1031 24.8374 24.0361 23.9884
threshold=1.0000000180025095e-35 1.0000000180025095e-35 0.34314839012035198 1.0000000180025095e-35 0.27843936413325249 0.2460808554378289 1.0000000180025095e-35 0.39506823545736708 0.41827275945833731 0.43308623953607378 0.41519920164742113 0.34654557268052671 0.54598954893908991 0.40936263953455027 0.46842551084494194 0.53704611443496897 0.40963969936982736 0.67992691845677966 0.45620644388247861 0.62100722381503848 0.62903069653455745 0.63016539126065829 0.71601522919568927 0.31261975790639857 1.0000000180025095e-35 1.0000000180025095e-35 0.34526177642090783 0.33885142555173003 0.42045611335763816 0.41714957806977321
decision_type=2 2 2 2 2 2 2 2 2 2 2 2 2 2 2 2 2 2 2 2 2 2 2 2 2 2 2 2 2 2
left_child=1 2 3 4 5 6 7 8 9 11 27 12 13 14 15 16 17 18 19 20 21 22 23 24 26 -7 28 -3 -1 -2
right_child=29 10 -4 -5 -6 25 -8 -9 -10 -11 -12 -13 -14 -15 -16 -17 -18 -19 -20 -21 -22 -23 -24 -25 -26 -27 -28 -29 -30 -31
leaf_value=-0.019414466766008574 -0.046982363508152186 -0.043433148106458236 0.063822773177764094 0.078186715486683198 0.049113136856664241 0.014115356671465188 0.082338006437969791 0.046913055149726907 0.055238657127033068 0.084694613739025648 0.39482648728715747 0.08374489082381889 0.14199936360666823 0.066252554539847672 0.087134500915337518 0.094466282200174181 0.060338664879167461 0.23682029060862037 0.088203547826635226 0.14210814561444726 0.1538024420604549 0.13514802620128469 0.18157634755562155 0.026320538535991658 0.056176124329512328 0.11304364673679264 0.05976574658196137 0.085598732952758827 0.090498044653328433 0.2596302261417312
leaf_weight=1339.4235428869724 128.14173480495811 133.85507737472653 47.4911228120327 28.701478451490402 70.38388903439045 559.62078446894884 23.269140362739563 61.415369734168053 36.980640701949596 17.000397995114326 0.777948297560214 11.521007217466829 4.0731125921010962 14.328158810734747 9.9933318197727186 7.0303552746772757 13.596989832818506 1.1910799629986275 7.0598595365881911 2.8055513203144065 2.3228071406483641 2.8938069343566886 1.6855663657188404 34.255896762013435 11.803586751222609 6.6081317961215964 10.190664637833832 3.8364014178514472 4.9925785996019831 0.64110562577843566
leaf_count=28243 3637 3472 198 125 292 6698 115 266 184 106 11 89 57 94 48 100 242 16 63 46 16 44 19 177 138 30 132 23 49 16
internal_value=0 0.00174423 0.00406966 0.00282675 0.00186734 0.000344789 -0.00487888 -0.00615162 -0.0082773 -0.00984722 -0.037396 -0.0109338 -0.011677 -0.0121047 -0.0128794 -0.0135738 -0.0141042 -0.0148177 -0.0150291 -0.0155459 -0.0158601 -0.0161406 -0.0164528 -0.0166911 -0.0177694 0.0152699 -0.0184137 -0.039838 -0.0190063 -0.045456
internal_weight=0 2469.11 2330.64 2283.15 2254.45 2184.06 1617.83 1594.56 1533.15 1496.17 138.469 1479.17 1467.65 1463.57 1449.25 1439.25 1432.22 1418.62 1417.43 1410.37 1407.57 1405.25 1402.35 1400.67 1366.41 566.229 1354.61 137.691 1344.42 128.783
internal_count=44746 41093 37587 37389 37264 36972 30244 30129 29863 29679 3506 29573 29484 29427 29333 29285 29185 28943 28927 28864 28818 28802 28758 28739 28562 6728 28424 3495 28292 3653
is_linear=0
shrinkage=0.05


Tree=22
num_leaves=31
num_cat=0
split_feature=143 354 274 484 464 18 682 29 330 637 615 676 169 483 309 6 652 100 226 695 684 654 288 688 321 626 603 637 637 497
split_gain=102.704 83.8421 66.8645 59.1666 59.3565 56.6926 53.2626 54.7864 56.9724 56.297 52.0962 44.6137 40.9824 37.0805 32.4616 33.7346 28.2637 27.5127 26.9169 26.5966 26.2371 26.1769 29.7965 26.3425 24.9333 23.8427 23.8182 23.0931 23.5507 25.1694
threshold=1.0000000180025095e-35 1.0000000180025095e-35 1.0000000180025095e-35 0.34314839012035198 0.21103533091255167 1.0000000180025095e-35 0.37759625658251711 0.26377671939208752 1.0000000180025095e-35 0.27771739360184017 0.22168948437600791 0.27843936413325249 0.41519920164742113 0.49092922072099204 0.32981798190676948 0.49835136409195657 0.3747392452276111 0.38791734382151072 0.50970658057438956 0.37298089913233201 0.44473389433514393 0.48757089162432471 0.53926809517433794 0.40947623406981853 1.0000000180025095e-35 0.39938844255972245 0.3651450805132887 0.29107179976337477 0.46578845874428704 0.43638430007804913
decision_type=2 2 2 2 2 2 2 2 2 2 2 2 2 2 2 2 2 2 2 2 2 2 2 2 2 2 2 2 2 2
left_child=1 2 3 4 5 6 7 8 9 10 11 13 -3 14 15 17 24 18 20 -4 21 22 23 25 27 -1 -2 -11 29 -29
right_child=26 12 19 -5 -6 -7 -8 -9 -10 16 -12 -13 -14 -15 -16 -17 -18 -19 -20 -21 -22 -23 -24 -25 -26 -27 -28 28 -30 -31
leaf_value=-0.015429268482745074 -0.046658556622167273 -0.03931499785337448 -0.046966969162434938 0.060578247238337414 -0.049683142737249053 0.076077353340602338 0.054660659857112603 0.031253281634000062 0.066647586278993226 0.053356439018683102 0.035311950028949733 0.03759033874825312 0.27290989253084708 0.077209972604792426 0.12533605878341156 0.11521533581561427 0.10491677553692291 0.056738280978111691 0.074849241983350606 0.22880225940863361 0.074615334669535072 0.060391888503835138 0.15276160264895422 0.060168985960600024 0.095771893895426383 0.12467752651869718 0.2575415043105142 -0.0029528189241826114 0.022543696802284487 0.16442223127488997
